-0.0,-0.049235744156090167,-0.0,-5.53677195115516e-07,-0.012944574212840187,-0.0328586004431534,-0.0,-0.0,-0.02628688035452272,-0.0,-0.05257376070904544
-0.000415881687705044,-0.021939547613855002,-0.0,-0.02872189342403541,-0.0,-0.020568325887989066,-0.0,-0.024681991065586877,-0.0,-0.0,-0.04936398213117375
-0.0005857834970915391,-0.030906470853968932,-0.0,-0.012952698724959607,-0.0,-0.009893839755081514,-0.0,-0.011872607706097821,-0.0,-0.0,-0.047490430824391285
-0.052594153521548725,-0.02189831969909577,-0.028741544605063202,-3.945223408122229e-06,-0.006748014820319182,-0.0191610297367088,-0.0,-0.028741544605063202,-0.028741544605063202,-0.014370772302531601,-0.057483089210126403
-0.0035529690931571808,-0.024289723967354054,-0.0,-1.2282546313952226e-06,-0.008610116986893276,-0.020628405281098477,-0.0,-0.0,-0.0,-0.022503714852107434,-0.04500742970421487
-0.029427200857798125,-0.012880460124076325,-0.0,-6.840707981246338e-06,-0.021559790172683547,-0.050716811738550555,-0.0,-0.016905603912850186,-0.0,-0.016905603912850186,-0.06762241565140074
-0.01454748222378012,-0.0187435671701269,-0.0,-4.437649143526666e-07,-0.018214488582657094,-0.011110098282292964,-0.0,-0.0,-0.0,-0.009522941384822538,-0.038091765539290154
-0.0,-0.012030844368469802,-0.0,-1.738689191341231e-06,-0.0067406015384608485,-0.005741993903133312,-0.0,-0.008612990854699971,-0.0,-0.025838972564099918,-0.034451963418799886
-0.0,-0.007802005635532122,-0.0,-0.01781879781734087,-0.0,-0.007680099297476935,-0.0,-0.01536019859495387,-0.0,-0.023040297892430804,-0.03072039718990774
-0.0,-0.016293289752276185,-0.0,-5.177778855813674e-06,-0.011274807370911485,-0.015757326273582895,-0.0,-0.027012559326142105,-0.0,-0.027012559326142105,-0.05402511865228421
-0.001599118670034871,-0.028361301875833335,-0.0,-1.0307429924117506e-06,-0.004588288334722114,-0.007755043481673176,-0.0,-0.0,-0.0,-0.0,-0.037224208712031255
-0.0019061796558294578,-0.024605610884207995,-0.0,-4.305090122205876e-07,-0.0035103113353829327,-0.009419335416610875,-0.0,-0.0,-0.0,-0.0,-0.032294864285522994
-0.00039269557399938484,-0.025113843048472542,-0.0,-5.548303960867634e-05,-0.0,-0.010464101270196893,-0.0,-0.0,-0.0,-0.0,-0.025113843048472542
-0.0042333017841327085,-0.012634920014412437,-0.0,-5.152526455152473e-07,-0.012483559489226996,-0.009754901481715485,-0.0,-0.011705881778058582,-0.0,-0.005852940889029291,-0.023411763556117165
-0.0,-0.01493341506054657,-0.0,-6.24869651070481e-06,-0.013182427875680504,-0.012472795533524693,-0.0,-0.021381935200328044,-0.0,-0.03207290280049207,-0.04276387040065609
-0.010820140495534423,-0.01213604385784465,-0.0,-1.578830672241867e-06,-0.004155275886109853,-0.007079358917076045,-0.0,-0.005309519187807035,-0.0,-0.0,-0.02123807675122814
-0.0012786666608364757,-0.00821680310311692,-0.0,-5.610145660474737e-08,-0.008752681566363676,-0.0047931351434848685,-0.0,-0.0,-0.0,-0.01437940543045461,-0.02875881086090922
-0.0006106833130554432,-0.011222945914325938,-0.0,-1.9181403782948407e-08,-0.012183977603171981,-0.005029795882335101,-0.0,-0.0,-0.0,-0.0043112536134300855,-0.017245014453720342
-0.00046258860156067963,-0.012833837529879592,-0.0,-9.752855612540909e-07,-0.008343514444144166,-0.005808417847574814,-0.0,-0.006970101417089779,-0.0,-0.013940202834179558,-0.027880405668359115
-0.02486380560284166,-0.00828793520094722,-0.01243190280142083,-1.0462772632578767e-06,-0.004972761120568332,-0.006215951400710415,-0.0,-0.0,-0.02486380560284166,-0.006215951400710415,-0.02486380560284166
-0.0002603726387355638,-0.060122999083868256,-0.0,-2.453996146869293e-05,-0.0,-0.007636590609442945,-0.0,-0.0,-0.0,-0.0,-0.06109272487554356
-0.00028667707525023084,-0.0145438494749527,-0.0,-2.920597083871123e-09,-0.004426388970637778,-0.004241956096861205,-0.0,-0.0,-0.0,-0.0,-0.0145438494749527
-0.018272157526971044,-0.008413244738258054,-0.0,-2.3931524323413666e-06,-0.0059609667936805786,-0.008281787789222773,-0.0,-0.011042383718963699,-0.0,-0.0,-0.022084767437927397
-0.019948593050603917,-0.010382348581537292,-0.0,-1.084489825654273e-06,-0.003949174556540746,-0.006359188506191592,-0.0,-0.005450733005307079,-0.0,-0.005450733005307079,-0.021802932021228315
-0.015409927918809236,-0.005614123763240447,-0.0,-1.2996153426746454e-06,-0.004337276745609544,-0.008421185644860671,-0.0,-0.004210592822430336,-0.0,-0.004210592822430336,-0.016842371289721342
-0.07272616322994309,-0.025396437953313457,-0.0,-3.026375060689351e-06,-0.008787217722435294,-0.015151284006238141,-0.0,-0.0,-0.0,-0.0,-0.07272616322994309
-0.0010228359406747624,-0.007932479901493114,-0.0,-0.0042800634771685084,-0.0,-0.006445139919963155,-0.0,-0.005949359926119836,-0.0,-0.0,-0.011898719852239672
-0.004234110416450508,-0.008451101274694242,-0.0,-1.0756632965524012e-06,-0.005436429772555287,-0.006050220230747015,-0.0,-0.0,-0.0,-0.0,-0.01613392061532537
-0.006890943674447238,-0.008354076951865767,-0.0,-9.713862253981066e-07,-0.007945453622698419,-0.004873211555255028,-0.0,-0.0,-0.0,-0.0,-0.029239269331530184
-0.00012192518518134436,-0.0004148066342252579,-0.0,-1.9591697974180756e-09,-0.00023182223972278897,-3.402710671379064e-05,-0.0,-0.0,-0.0,-0.0006124879208482324,-0.0008166505611309766
-0.0008755209397767936,-0.08259635661264125,-0.0,-0.0005133800648976542,-0.0,-0.04944913455098917,-0.0,-0.0,-0.0,-0.0,-0.0912907099402877
-0.00024359807982557525,-0.014376149935354852,-0.0,-5.197200641817982e-05,-0.0,-0.004312844980606453,-0.0,-0.0,-0.0,-0.0,-0.02587706988363873
-3.620021156690368e-05,-0.006071274031753284,-0.0,-1.6054843168253745e-06,-0.006539158084852531,-0.005691819404768702,-0.0,-0.01366036657144489,-0.0,-0.0,-0.02732073314288978
-3.930750405456497e-05,-0.008988027455165236,-0.0,-3.0711463560569292e-06,-0.00024136646618730165,-0.004626190601923283,-0.0,-0.00277571436115397,-0.0,-0.0,-0.01110285744461588
-0.021368206358648428,-0.0050876681806305765,-0.010684103179324214,-1.9379046309953994e-06,-0.0051097884770681026,-0.007122735452882808,-0.007122735452882808,-0.010684103179324214,-0.0,-0.0,-0.021368206358648428
-0.014769582636748399,-0.005537671470092912,-0.019381850145325192,-4.260363359056344e-07,-0.0016853782735065377,-0.004845462536331298,-0.0,-0.0,-0.0,-0.009690925072662596,-0.019381850145325192
-0.0037256994341637656,-0.002154450321561586,-0.0027146074051675986,-1.5660678115008486e-06,-0.0010896198071524898,-0.004976780242807264,-0.0,-0.0027146074051675986,-0.0,-0.0,-0.005429214810335197
-0.0058481145198279955,-0.011179718651268634,-0.0,-8.478847097923252e-07,-0.013799063167643127,-0.007901051162194661,-0.0,-0.0,-0.0,-0.013544659135190847,-0.027089318270381694
-0.0025671347906775764,-0.0025450588237855717,-0.0,-7.643723614640228e-07,-0.0024335993306332233,-0.004858748663590637,-0.0,-0.0036440614976929776,-0.0,-0.007288122995385955,-0.007288122995385955
-0.0009719397773117533,-0.0050855133041154115,-0.0,-5.881580858667699e-07,-0.006144073953830739,-0.006197969339390657,-0.0,-0.002860601233564919,-0.0,-0.005721202467129838,-0.011442404934259676
0.0005404340824824498,0.00027155070996073523,0.0,5.438329877936612e-08,0.0010692309204703952,0.0005791667485881307,0.0,0.0010692309204703952,0.0,0.0005346154602351976,0.0010692309204703952
-0.017400864137222374,-0.006943216901879577,-0.0,-0.002948798731585524,-0.0,-0.0015848647276029467,-0.0,-0.0,-0.0,-0.0,-0.019018376731235367
-0.00023259982571849653,-0.011457344426858812,-0.0,-1.754606752716221e-08,-0.002220732237171155,-0.0023869467555955853,-0.0,-0.0,-0.0,-0.0,-0.011457344426858812
-0.006217214633656294,-0.002749010482827483,-0.002546877359090168,-6.572159939526618e-07,-0.003506274986879613,-0.00594271383787706,-0.0,-0.002546877359090168,-0.0,-0.0,-0.010187509436360672
-0.0037516971365905045,-0.008639514363990495,-0.0,-1.976453134438426e-06,-0.002671159416592691,-0.006803617561642515,-0.0,-0.0034018087808212576,-0.0,-0.0,-0.01360723512328503
-0.0,-0.0054500502539336975,-0.0,-8.086064723441235e-07,-0.004229588511144922,-0.0017882977395719945,-0.0,-0.004291914574972787,-0.0,-0.0,-0.008583829149945574
-0.0,-0.004981518355356939,-0.0,-0.0019879120831273744,-0.0,-0.01005883514062459,-0.0,-0.0,-0.0,-0.012070602168749507,-0.024141204337499014
-6.214352416593822e-05,-0.005408445870904345,-0.0,-2.4983582182669543e-05,-0.0,-0.001802815290301448,-0.0,-0.0,-0.0,-0.0,-0.005408445870904345
-0.053225194753023716,-0.01477404176075458,-0.0,-0.0,-0.008070842220896131,-0.0024238662263737954,-0.0,-0.0,-0.0,-0.014543197358242796,-0.05817278943297118
-0.0032884004313176577,-0.0009278734095947362,-0.0,-1.4650907235967807e-06,-0.002181172195095426,-0.0038970683202978946,-0.0,-0.005845602480446843,-0.0,-0.008768403720670264,-0.011691204960893686
-0.00279618578448557,-0.004906454061081741,-0.0,-9.556272605544729e-07,-0.010079563234178794,-0.009199601364528267,-0.0,-0.011039521637433918,-0.0,-0.0,-0.022079043274867836
0.0001476045464113026,8.126572265882052e-05,0.0,2.4225064125403196e-08,4.559199766193804e-05,9.696478271791087e-05,0.0,5.8178869630746514e-05,0.0,0.0,0.00023271547852298606
-0.0006709661736929229,-0.006861564035637801,-0.0,-1.928843331742741e-08,-0.004176604195605617,-0.0050032237759858956,-0.0,-0.0,-0.0,-0.0,-0.024015474124732306
-3.9340099297330656e-08,-0.00011318796422646839,-0.0,-4.9374717150032134e-05,-0.0,-6.819110959545432e-05,-0.0,-5.844952251038941e-05,-5.844952251038941e-05,-0.0,-0.00011689904502077882
-0.01387668064324576,-0.0,-0.0,-3.914043000707823e-09,-0.01987543575925721,-0.003932953252657749,-0.0,-0.0,-0.0,-0.0,-0.047195439031893015
-6.740664183003965e-05,-0.010476754481793468,-0.0,-4.794825034203191e-05,-0.0,-0.004095965183041595,-0.0,-0.0,-0.0,-0.0,-0.014043309198999753
-0.0,-0.001355378192522482,-0.0,-1.610921077472142e-07,-0.002125439259078462,-0.0011320488312545733,-0.0,-0.000970327569646777,-0.0,-0.003881310278587108,-0.003881310278587108
-0.000763382525866514,-0.0012196044384286781,-0.0014775976850193604,-7.790105009064357e-07,-0.0015546897381508047,-0.003693994212548401,-0.0,-0.002955195370038721,-0.0,-0.0,-0.005910390740077442
-0.0004537415410844033,-0.0026436419915598004,-0.0,-2.657083667128338e-07,-0.0009783350721213786,-0.003835020125914053,-0.0,-0.0010957200359754437,-0.0,-0.0,-0.004382880143901775
-0.0001522905566308089,-0.010341917474916675,-0.0,-4.930850751216654e-07,-0.0016400340526584107,-0.002381362576461076,-0.0,-0.002857635091753292,-0.0,-0.0,-0.011430540367013168
-0.0010791214862908305,-0.00024518890307540165,-0.0005941115728365503,-2.066149414356029e-07,-0.00020664750359532176,-0.0003960743818910335,-0.0,-0.0005941115728365503,-0.0,-0.0,-0.0011882231456731005
0.0008091984308843045,0.0008342203517690466,0.0,1.2388902492773606e-07,0.0011490591147832452,0.0006796019245015078,0.0,0.0013592038490030157,0.0,0.0,0.0018122717986706876
-2.7978114993802826e-05,-0.008143142164181659,-0.0,-4.736649265990767e-10,-0.005768567725001249,-0.004422568589167624,-0.0,-0.0,-0.0,-0.0,-0.017690274356670498
-0.0016156875275324747,-0.00595053267587048,-0.0,-6.537888048721182e-07,-0.006650670387818965,-0.005386258025572419,-0.0,-0.003231754815343451,-0.0,-0.0,-0.012927019261373804
-0.0006040832068329702,-0.0005544227314703107,-0.00044780297541832783,-0.0005149827752428833,-0.0,-0.00029853531694555184,-0.0,-0.00022390148770916392,-0.0,-0.00044780297541832783,-0.0008956059508366557
-0.004663108365076693,-0.0029123266827026486,-0.0,-8.491939030947348e-09,-0.0006942417008516497,-0.0,-0.0,-0.0,-0.0,-0.0,-0.005096571694729635
-0.0034970644366250536,-0.0010918291436520409,-0.0019107010013910718,-1.5832063800440064e-07,-0.0010525470298967336,-0.0014330257510433038,-0.0,-0.0,-0.0,-0.0,-0.0038214020027821437
-0.004491680011193931,-0.05216399472924045,-0.0,-3.180269796213698e-07,-0.05112290462753782,-0.04249566811994158,-0.0,-0.0,-0.0,-0.0,-0.11332178165317754
0.0003631276599670443,0.005139838606759163,0.0,8.620769202931327e-07,0.015968249459359974,0.0038548789550693708,0.0,0.005782318432604058,0.0,0.005782318432604058,0.023129273730416233
-0.0001933202851738042,-0.006956986832018982,-0.0,-2.7647408537389688e-08,-0.0010766693316770248,-0.0021071642808519033,-0.0,-0.0,-0.0,-0.0,-0.008428657123407613
-0.006936387173365131,-0.0019253752709328905,-0.0,-5.339856003849021e-07,-0.0019226493999650754,-0.0015794094019371365,-0.0,-0.0037905825646491285,-0.0,-0.0,-0.007581165129298257
2.225054910566466e-05,0.0025982417901800605,0.0,6.001519356935765e-07,0.0022833461819136733,0.001705096174805665,0.0,0.001705096174805665,0.0,0.00341019234961133,0.00682038469922266
-0.0015243944873102044,-0.001111687119645873,-0.0,-2.5080916602647026e-07,-0.0005281480502769764,-0.0007565648453145527,-0.0,-0.0006484841531267594,-0.0,-0.0006484841531267594,-0.0025939366125070375
0.008333086982767374,0.002192985081321077,0.0,1.4228092416290638e-06,0.002468023549389721,0.005372813449236642,0.0,0.004605268670774264,0.0,0.004605268670774264,0.009210537341548529
-0.0,-0.0013701041650409876,-0.0,-0.0,-0.007806019555955274,-0.0017982617166162963,-0.0,-0.0,-0.0,-0.0,-0.04315828119879117
-0.0006532131157085968,-0.0039749637215465644,-0.0,-3.031023878359202e-07,-0.0008117248856497814,-0.0013729315485604906,-0.0,-0.0016475178582725893,-0.0,-0.006590071433090357,-0.006590071433090357
-0.002603728458059221,-0.0016186878380858285,-0.0,-9.60439975844351e-08,-0.0032553405183105974,-0.002236345039460685,-0.0,-0.0,-0.0,-0.0026836140473528217,-0.005367228094705643
-5.5509382657778165e-05,-0.0020052417539819897,-0.0,-3.0481147327865787e-09,-0.0007664119140598504,-0.0007344780843073567,-0.0,-0.0,-0.0,-0.0007344780843073567,-0.0029379123372294267
-0.0018732138226830199,-0.0014888702211754735,-0.0,-6.204374385744456e-06,-0.00018537316983014782,-0.0031976871795700514,-0.0,-0.002131791453046701,-0.0,-0.006395374359140103,-0.008527165812186804
-4.1543051762159844e-05,-0.0002715493802408395,-0.0,-2.8629986764213603e-09,-0.00015019223664658473,-0.00016449625918435473,-0.0,-0.0,-0.0,-0.0,-0.00032899251836870946
-0.00019373722054493228,-0.008673619420419509,-0.0,-0.0010458307082678916,-0.0,-0.002678617762188378,-0.0,-0.0,-0.0,-0.0,-0.010714471048753511
0.0010697170461666384,0.0006253089053258752,0.0,9.62694602945411e-08,0.0009377937089640636,0.00032828717529608437,0.0,0.00039394461035530137,0.0,0.0015757784414212055,0.0015757784414212055
-0.0024720258701632684,-0.005961284745890456,-0.0,-2.2656824658815105e-07,-0.005065458033462172,-0.008844732258848341,-0.0,-0.0,-0.0,-0.0,-0.016328736477873862
-0.00022748595942143526,-0.0005209955775502649,-0.0,-2.5061132825244084e-08,-0.0004082861125408365,-0.00050145824339213,-0.0,-0.0,-0.0,-0.0005470453564277783,-0.0010940907128555565
-0.0,-0.010151043209212143,-0.0,-1.019707194611326e-08,-0.0026511774124767405,-0.005577171995758997,-0.0,-0.0,-0.0,-0.0,-0.014872458655357324
-0.0015269874122952995,-0.0006520541377283548,-0.0,-2.829344688822199e-07,-0.000558144166805521,-0.000962798687739524,-0.0,-0.0006418657918263494,-0.0,-0.0006418657918263494,-0.0025674631673053977
-0.0,-0.010568161088145697,-0.0,-0.005646300877811338,-0.0,-0.002080606714228684,-0.0,-0.004161213428457368,-0.0,-0.0,-0.016644853713829472
0.0022778522369140426,0.0027563291857075575,0.0,0.004063546136357129,0.0,0.0026874209560648686,0.0,0.002480696267136802,0.0,0.0,0.004961392534273604
0.0009183308179980038,0.021309112415875017,0.0,6.778370317757159e-06,0.039286448893816404,0.030119610818592574,0.0,0.0516336185461587,0.0,0.02581680927307935,0.1032672370923174
-1.635732958862755e-05,-2.9047538917620028e-05,-0.0,-2.0262308552903637e-09,-3.905918078962187e-05,-5.198849294914948e-05,-0.0,-0.0,-0.0,-6.238619153897939e-05,-8.318158871863918e-05
-0.0002791561134294222,-0.0009019632740787626,-0.0,-2.3472363921020318e-07,-0.0008441199771541463,-0.0007892178648189174,-0.0,-0.0009470614377827008,-0.0,-0.0004735307188913504,-0.0018941228755654017
-0.002054365955157623,-0.0009266446821019158,-0.0,-4.4344554947590893e-08,-0.0009142403498607355,-0.0006548883089854886,-0.0,-0.0005613328362732759,-0.0,-0.0,-0.0022453313450931035
-0.002004495362584973,-0.010681752746569385,-0.0,-6.545116755117745e-07,-0.005572531080675509,-0.004005657279963519,-0.0,-0.004806788735956223,-0.0,-0.004806788735956223,-0.019227154943824893
0.0007217177257467939,0.0014296539378498264,0.0,2.82714426335815e-07,0.0014853825771063416,0.0028469832727871544,0.0,0.0023293499504622177,0.0,0.0007764499834874058,0.003105799933949623
-0.00390495807340536,-0.0035538695189516164,-0.0,-6.760703233987566e-07,-0.002343493668294182,-0.0020730905527217764,-0.0,-0.0020730905527217764,-0.0,-0.0020730905527217764,-0.008292362210887106
-0.0028761526590391304,-0.006908370399810755,-0.0,-4.0430472661038876e-07,-0.0012085443104642843,-0.0030224120499172053,-0.0,-0.0,-0.0,-0.0,-0.014507577839602588
-0.0003880951712642448,-0.003542931350650064,-0.0,-0.0005230033385407176,-0.0,-0.00047693306643366225,-0.0,-0.0014307991993009873,-0.0,-0.0,-0.005723196797203949
8.265125521529461e-05,0.001121389308246156,0.0,0.0007679250946345264,0.0,0.0008920142224685332,0.0,0.0010704170669622397,0.0,0.0,0.0021408341339244795
0.004772952721557907,0.0027325187632018092,0.0,0.0,0.0013608591468910194,0.00021735944707287086,0.0017388755765829693,0.0,0.0,0.002608313364874454,0.005216626729748908
-0.0003599114676323944,-0.008540552365696322,-0.0,-0.005894398033343385,-0.0,-0.005095215899989282,-0.0,-0.00611425907998714,-0.0,-0.0,-0.02445703631994856
-0.003551102380313857,-0.0004928505673574019,-0.0,-2.508095932304491e-07,-0.0008887943919081553,-0.0014554493317273287,-0.0,-0.0009702995544848857,-0.0,-0.0009702995544848857,-0.003881198217939543
4.1124534475477075e-05,0.003185868294667317,0.0,0.0009329099532490026,0.0,0.0011947006105002438,0.0,0.0007964670736668293,0.0,0.0,0.003185868294667317
-0.0015166551684579028,-0.0045300540072339785,-0.0,-4.5922889609407284e-07,-0.006721014627832693,-0.004756556707595678,-0.0,-0.0035674175306967585,-0.0,-0.0,-0.014269670122787034
0.0016649394628237603,0.001126484277575232,0.0,1.9575893152721018e-07,0.0002730349233449987,0.00030328422857794695,0.0,0.0004549263428669206,0.0,0.0,0.0018197053714676824
-0.0008800386937238751,-0.010565090574553602,-0.0,-3.145054239540634e-08,-0.00983931478725818,-0.003328003530984385,-0.0,-0.0,-0.0,-0.01331201412393754,-0.02662402824787508
-0.0001570128831913396,-0.004301827223200734,-0.0,-1.4267065302198385e-07,-0.0028325158346743963,-0.002605914567900445,-0.0,-0.002605914567900445,-0.0,-0.0,-0.01042365827160178
0.00024788611095362693,0.007982365319404891,0.0,4.0717240827342384e-07,0.004782911828610811,0.00785764086128919,0.0,0.00261921362042973,0.0,0.0,0.01047685448171892
-0.029388269537064624,-0.0010196851402601915,-0.0,-1.4487387549163875e-06,-0.0023740930113449253,-0.0026766734931830054,-0.0,-0.0,-0.0,-0.0,-0.032120081918196076
-0.00028477284595924095,-0.0028448418628605056,-0.0,-6.701348929354144e-07,-0.0008890103932574591,-0.0032468303869603605,-0.0,-0.0019480982321762163,-0.0,-0.0038961964643524326,-0.007792392928704865
-0.006459250806793119,-0.0029643690393792986,-0.0,-8.279549491732953e-07,-0.003953831925830597,-0.004863417955231663,-0.0,-0.005836101546277996,-0.0,-0.0,-0.011672203092555991
0.0010127506710055159,0.001094070088349362,0.0,3.621579588250923e-07,0.0013221179456395743,0.001351498344431565,0.0,0.002027247516647348,0.0,0.0,0.004054495033294696
-0.0,-0.00602075910630578,-0.0,-0.0,-0.004586738628947897,-0.003951123163513168,-0.0,-0.0,-0.0,-0.0,-0.023706738981079018
0.001027476835683549,0.00010695112823707204,0.0002807467116223142,1.1252393586687112e-07,0.0002001846117654762,9.358223720743803e-05,0.0,0.0002807467116223142,0.0,0.0,0.0011229868464892568
-0.008047516283260914,-0.0,-0.0,-1.289577202594279e-07,-0.0023744337801562838,-0.002459998961423176,-0.0,-0.0,-0.0073799968842695315,-0.0,-0.014759993768539063
-0.0018928368369154256,-0.0008009760418730926,-0.0,-5.55974894769368e-07,-0.0007522209784547303,-0.003304026172726507,-0.0,-0.0,-0.0,-0.0018021960942144583,-0.007208784376857833
-0.0009509077743165812,-0.006925217934430619,-0.0,-4.5892886129416866e-07,-0.003245819536224438,-0.0044436815079263135,-0.0,-0.0,-0.0,-0.0,-0.009695305108202866
-0.000299260698167495,-0.009059077303507086,-0.0,-3.5546649993976955e-07,-0.002979371185621502,-0.004864106847621704,-0.0,-0.0032427378984144686,-0.0,-0.0,-0.012970951593657874
-0.0073985823349000494,-0.0034229724783765986,-0.0,-1.7995581047736747e-07,-0.001689757805195126,-0.0003327889909532799,-0.0,-0.0,-0.0,-0.0,-0.007986935782878731
-0.0001704954749368465,-0.0024609296223204774,-0.0,-1.595499428789676e-07,-0.0005164647889605177,-0.002279978914796913,-0.0,-0.0,-0.0,-0.0011399894573984565,-0.004559957829593826
0.0021222800371657746,0.0010084908525793115,0.0,3.624403378161619e-07,0.0019627493595393702,0.0011146477844297656,0.0,0.0016719716766446485,0.0,0.0025079575149669726,0.003343943353289297
-0.0017508214278549612,-0.0012423681606157377,-0.0,-3.33478960661328e-07,-0.0005332640262747291,-0.000966286347145574,-0.0,-0.0007247147603591805,-0.0,-0.0,-0.002898859041436722
0.0008500443930138792,0.000850952846849519,0.0,4.305975565495038e-07,0.0008277333687854844,0.0028907368767976307,0.0,0.0015767655691623441,0.0,0.0,0.0031535311383246883
-0.0035067181263412762,-0.00200609387704073,-0.0,-1.0883794095505134e-06,-0.003022224036498317,-0.0033510886355112204,-0.0,-0.002872361687581046,-0.0,-0.002872361687581046,-0.011489446750324183
0.00223969348332273,0.003421943418394879,0.0,8.545909549706972e-07,0.002024947416180889,0.005323023095280923,0.0,0.003992267321460693,0.0,0.0,0.007984534642921386
-0.004553622379488608,-0.002139653432769214,-0.0,-2.8879803112640447e-06,-0.004688631870068193,-0.005616590261019192,-0.0,-0.00673990831322303,-0.0,-0.0,-0.02695963325289212
-0.008827104223355038,-0.010353871846944246,-0.0,-0.0032751992671151593,-0.0,-0.0022036956971536736,-0.0,-0.0,-0.0,-0.0,-0.01762956557722939
3.518915715332148e-05,0.00023734233725220292,0.0,2.070282133812026e-08,8.381711806141371e-05,0.00012460472705740655,0.0,6.796621475858538e-05,0.0,6.796621475858538e-05,0.0002718648590343415
8.42272880982162e-06,0.00047318448556482037,0.0,2.544411708536267e-08,0.00014747248609233598,0.0004544302224174341,0.0,0.0,0.0,0.00018177208896697365,0.0007270883558678946
-4.2426760380819896e-05,-0.0009643994566264707,-0.0,-6.383951981092544e-08,-0.0004675131825011489,-0.0002531548573644485,-0.0,-0.0006075716576746765,-0.0,-0.0,-0.001215143315349353
-0.0008349263196883481,-0.004088171042425396,-0.0,-5.244976600697496e-07,-0.002281080943961997,-0.0031796885885530864,-0.0,-0.0047695328828296305,-0.0,-0.0,-0.009539065765659261
-0.0012092163473310434,-0.007251164163606582,-0.0,-0.00043253232683230787,-0.0,-0.0033989832016905848,-0.0,-0.0,-0.0,-0.0,-0.016315119368114812
-0.0008375389179529518,-0.002157843623018158,-0.0015448198664789086,-3.5017228524049393e-07,-0.0029553075706553033,-0.004119519643943756,-0.0,-0.0015448198664789086,-0.0,-0.003089639732957817,-0.006179279465915634
5.8821190864899364e-05,0.003578461858371317,0.0,1.0829978757439852e-07,0.0026624339671150812,0.001565577063037451,0.0,0.0023483655945561767,0.0,0.0023483655945561767,0.004696731189112353
0.003042325520888817,0.0015920803904596204,0.0,1.1356195066678582e-06,0.000923488062803688,0.003195867254378503,0.0,0.002950031311734003,0.0,0.004425046967601005,0.005900062623468006
-0.007121790105473471,-0.002335939705611747,-0.0024527366908923356,-1.0817491844184314e-06,-0.001492970159673595,-0.0032703155878564477,-0.0032703155878564477,-0.0024527366908923356,-0.0,-0.0,-0.009810946763569342
-0.0011456051556619602,-0.00015757667780040503,-0.0,-1.8918473487555895e-07,-0.0006116098958226077,-0.0012409163376781913,-0.0,-0.0,-0.0,-0.0,-0.004963665350712765
0.00046426483157797644,0.0010109726617193236,0.0,4.060167504775403e-07,0.0006177015491021867,0.000663450809253306,0.0,0.0009951762138799593,0.0,0.002985528641639878,0.003980704855519837
-0.0033922817804144393,-0.002071847019567822,-0.0,-7.984569236992938e-07,-0.0008213901513504008,-0.004007388314164078,-0.0,-0.0,-0.0,-0.0,-0.006869808538566991
-0.0,-0.0020415901297247668,-0.0,-4.919806771162211e-07,-0.002027165851634321,-0.002679587045263757,-0.0,-0.0,-0.0,-0.0,-0.01607752227158255
-0.002085416666245344,-0.005142271297741758,-0.0,-1.7276452674075643e-06,-0.003900558964307127,-0.007268402699692679,-0.0,-0.0,-0.0,-0.0,-0.024920237827517754
-0.00011330064825446164,-0.004054155921770858,-0.0,-3.7764468290510645e-07,-0.0006612440478730213,-0.002660539823662126,-0.0,-0.0,-0.0,-0.0,-0.005804814160717366
-0.00018835161906552203,-0.006949778093774656,-0.0,-1.5349781978006151e-07,-0.001699673990325323,-0.003040527916026412,-0.0,-0.0,-0.0,-0.0,-0.010424667140661984
-2.8102462291200952e-05,-0.0064446804300842585,-0.0,-4.236012891091083e-07,-0.0018779596072863467,-0.004319307096758599,-0.0,-0.0021596535483792995,-0.0,-0.0,-0.008638614193517198
8.429072838595365e-05,0.00018864384698721005,0.0,2.0189206876503774e-08,0.0001299629349006747,9.003456333480479e-05,0.0,9.003456333480479e-05,0.0,0.00018006912666960958,0.00036013825333921915
-5.018530689202826e-06,-0.0009022498837674347,-0.0,-1.189447742679823e-07,-0.0010750503506368064,-0.0009473623779558065,-0.0,-0.0010657826752002823,-0.0,-0.0,-0.0014210435669337097
-0.00027071308503077204,-0.004181427970424186,-0.0,-4.0287732919906986e-07,-0.0013819523757401353,-0.003177335069631536,-0.0,-0.0017330918561626562,-0.0,-0.0034661837123253123,-0.006932367424650625
-0.0004631708860732435,-0.000359557669542516,-0.0,-1.199180124907654e-07,-0.0005653731694712984,-0.00047191944127455233,-0.0,-0.0006292259216994031,-0.0,-0.00031461296084970154,-0.0012584518433988061
-8.462182240304822e-05,-0.007118811586166733,-0.0,-4.018675900260692e-09,-0.0005571243850043526,-0.001001082879304697,-0.0,-0.0,-0.0,-0.0,-0.008008663034437575
-0.0,-0.0059534648759716185,-0.0,-0.0,-0.002656968001431561,-0.003233347303329414,-0.0,-0.0,-0.0,-0.003233347303329414,-0.012933389213317655
-0.00015837894394497387,-0.001990046913917695,-0.0,-1.0003865940840965e-06,-0.0007433179184396131,-0.00451152681052932,-0.0,-0.001424692677009259,-0.0,-0.002849385354018518,-0.005698770708037036
0.0045416027095488655,0.005595647888704115,0.0,0.003362493332052626,0.0,0.004730219295747759,0.0,0.0,0.0,0.0,0.0059750138472603265
0.00020578393117477576,0.004286428327003836,0.0,7.243149672487889e-07,0.0004520318220499041,0.0038358662585403647,0.0,0.001534346503416146,0.0,0.0,0.006137386013664584
-4.324749668527565e-05,-0.0005955641823164419,-0.0,-0.0011725169839354951,-0.0,-0.0005374036176371018,-0.0,-0.0002931292459838738,-0.0,-0.0,-0.0011725169839354951
-0.00213902715308695,-0.006116411315093443,-0.0,-6.07776388857423e-07,-0.0037863245349695845,-0.00432265607364777,-0.0,-0.0,-0.0,-0.0,-0.014820535109649497
-0.0026851692623037137,-0.005682218538777358,-0.012784991712249057,-5.730567664585555e-07,-0.0040244930433340495,-0.004261663904083018,-0.0,-0.006392495856124529,-0.0,-0.0,-0.012784991712249057
-0.0032851271692563608,-0.002266992844392588,-0.0,-2.1028183912842264e-07,-0.002069863031836711,-0.005289649970249375,-0.0,-0.0,-0.0,-0.0,-0.015868949910748123
-7.039755205206335e-05,-0.0014296293429315468,-0.0,-1.4273255725761673e-07,-0.0005339919877748268,-0.001364646190980113,-0.0,-0.0,-0.0,-0.0006823230954900565,-0.002729292381960226
-0.0,-0.005454854917197486,-0.0,-0.0018819591280170018,-0.0,-0.005250297857802581,-0.0,-0.0028637988315286804,-0.0,-0.0,-0.011455195326114722
1.510609268014361e-05,0.00042831307004701245,0.0,3.3426319229998407e-08,0.00015551792058026505,0.00031376422573211373,0.0,0.00015688211286605687,0.0,0.0,0.0006275284514642275
-0.0051198661186416155,-0.00448398699317452,-0.0,-0.0018864744516919431,-0.0,-0.0014713082321353885,-0.0,-0.0,-0.0,-0.004413924696406168,-0.008827849392812335
-0.004663697164832724,-0.0010800453719779892,-0.0,-5.981993699069534e-07,-0.0028595750853433596,-0.003969166742019113,-0.0,-0.003402142921730668,-0.0,-0.0,-0.013608571686922671
0.00017274763337562826,0.00040643962956536856,0.0,4.689133492416965e-08,0.000538726893344775,0.00040643962956536856,0.0,0.0003048297221740264,0.0,0.0012193188886961057,0.0012193188886961057
0.00021163164481644405,0.0032710706912830985,0.0,2.6329673978690094e-08,0.0006109015421467444,0.0011708946224479274,0.0,0.0,0.0,0.002341789244895855,0.00468357848979171
-0.0051713731073991485,-0.0011159836710457462,-0.0,-9.717071134623892e-07,-0.0005392748485182687,-0.0014647285682475425,-0.0,-0.0,-0.0,-0.002929457136495085,-0.00585891427299017
-0.00010355904679231108,-0.0015963715491164369,-0.0,-4.7522006556169604e-07,-0.0002120082373530128,-0.0005079364019915934,-0.0,-0.0007619046029873904,-0.0,-0.0,-0.0030476184119495615
-1.4095214665728156e-05,-0.0004748480875990639,-0.0,-0.0002446225265696981,-0.0,-0.00039174967226922764,-0.0,-0.00021368163941957874,-0.0,-0.0004273632788391575,-0.000854726557678315
8.988342138816935e-05,5.4783092164201605e-05,0.0,1.3529807578241731e-08,5.433135752116845e-05,4.9588143769320424e-05,0.0,5.950577252318451e-05,0.0,5.950577252318451e-05,0.00011901154504636902
0.00024974951042330796,0.0006230860498632811,0.0,6.106061435217349e-07,0.000915310698179378,0.000981360528534668,0.0,0.001962721057069336,0.0,0.0,0.001962721057069336
0.0002685314891894058,0.000243926226100132,0.0,6.7494358157486e-08,0.00023198577219532825,0.00032015317175642326,0.0,0.00032015317175642326,0.0,0.0004802297576346349,0.0006403063435128465
-0.0,-0.0017862826382205484,-0.0014066975775986821,-6.225193974420482e-07,-0.0012721438962631558,-0.0011722479813322348,-0.0018755967701315763,-0.0014066975775986821,-0.0,-0.005626790310394729,-0.005626790310394729
-0.00043672627574082196,-0.0028739221295140316,-0.0,-5.97495206726628e-08,-0.0020773458870943814,-0.001047784109718657,-0.0,-0.0,-0.0,-0.0,-0.005029363726649556
-0.00099710362412025,-0.0018581261071918148,-0.0,-5.893372532888965e-07,-0.002809804777184766,-0.004267883402456201,-0.0,-0.0036581857735338862,-0.0,-0.0036581857735338862,-0.0073163715470677725
-0.0004798573588909719,-0.00752740941456641,-0.0,-2.4409671213213753e-08,-0.0018569861380824744,-0.004204138236858899,-0.0,-0.0,-0.0,-0.0,-0.010089931768461359
-0.005309413284235709,-0.0011964950614550742,-0.0,-4.924508180061095e-07,-0.001814016566976921,-0.0020938663575463803,-0.0,-0.0015703997681597854,-0.0,-0.0,-0.006281599072639142
-0.00045632849516380236,-0.008487424335325271,-0.0,-0.00019899056365995437,-0.0,-0.0013105581694252254,-0.0,-0.0,-0.0,-0.0,-0.01572669803310271
-0.0004799176169307718,-0.00220020803539665,-0.0,-0.002954061569424326,-0.0,-0.002887773046458103,-0.0,-0.0038503640619441375,-0.0,-0.0019251820309720688,-0.007700728123888275
0.0007587280276977128,0.0024046403707252487,0.0,5.441196546687803e-07,0.0032933118120802318,0.002777359628187662,0.0,0.00454477030067072,0.0,0.0,0.006059693734227626
-6.110318517747358e-05,-0.0024890177320155333,-0.0,-6.928645569950568e-07,-0.0004040144724431009,-0.002419878350570658,-0.0,-0.0014519270103423947,-0.0,-0.004355781031027184,-0.005807708041369579
-0.0,-0.011950186286480471,-0.0,-9.595824450676477e-07,-0.0020830166610031164,-0.0028517490001828396,-0.0,-0.005703498000365679,-0.0,-0.0,-0.022813992001462717
-0.0,-0.002120622732634368,-0.0,-8.748727775339202e-08,-0.0012447133430679984,-0.0007952335247378878,-0.0,-0.0019085604593709312,-0.0,-0.0,-0.0038171209187418623
0.001706217796558468,0.0025906125567712527,0.0039485949454013455,5.926838316699345e-07,0.0012971992785848936,0.0032904957878344544,0.0,0.0026323966302675634,0.0,0.0,0.005264793260535127
-0.0016404947481565904,-0.003819082698746793,-0.0,-0.0033360136547455664,-0.0,-0.0028643120240600946,-0.0,-0.002148234018045071,-0.0,-0.0,-0.008592936072180283
0.0,0.0011630848049837244,0.0,6.4370582342260904e-09,0.0002854513524857446,0.0006106195226164554,0.0,0.0,0.0,0.0003663717135698732,0.0014654868542794929
-0.00044555102966462284,-0.006353725334449476,-0.0,-3.4831573504070534e-08,-0.0026105523656759807,-0.0037526690256592223,-0.0,-0.0,-0.0,-0.0,-0.010007117401757927
-0.011757821514727025,-0.001026960284198563,-0.0,-2.968119711223928e-07,-0.004437754360615401,-0.003774079044429723,-0.0,-0.0,-0.0,-0.0,-0.012939699580901905
-0.003649234330174008,-0.0,-0.0,-6.1934924594890115e-06,-0.002126642703993695,-0.007642622217477358,-0.0,-0.0,-0.0,-0.0,-0.061140977739818865
-0.0006609262036552564,-0.0010773415420446257,-0.0,-0.0017058361391161043,-0.0,-0.0015602877505473888,-0.0,-0.0011702158129105417,-0.0,-0.0005851079064552708,-0.0023404316258210833
-0.000563487784552778,-0.002899838556203296,-0.0,-1.8012366875013785e-07,-0.0010345320117475213,-0.000928301976833372,-0.0,-0.0011139623722000466,-0.0,-0.0,-0.0044558494888001865
0.0031488740426504984,0.0019759118741469353,0.0009430488490246736,2.7349090899066497e-07,0.000934848424250546,0.0017289228898785683,0.0,0.0,0.0018860976980493473,0.0,0.0037721953960986945
0.00012199540904410822,0.007188228064987861,0.0,1.3938647866402464e-06,0.004841710154252952,0.005478125420494782,0.0,0.003652083613663188,0.0,0.0,0.014608334454652752
1.6829584655469184e-05,0.002309411284269162,0.0,0.0005035016333640801,0.0,0.0013989702972015117,0.0,0.0006994851486007558,0.0,0.0,0.0027979405944030234
0.004625905189302005,0.004580708746223104,0.0,5.266444127165046e-07,0.000367452505947027,0.0004294414449584159,0.0,0.0,0.0,0.0,0.005153297339500993
-0.0001515386567093429,-0.0111943097538545,-0.0,-1.4836998590700138e-08,-0.004968205016952534,-0.005713762270196568,-0.0,-0.0,-0.0,-0.0,-0.019590042069245375
-0.00558064243927315,-0.0025907961104678972,-0.0,-8.906495086490326e-07,-0.0013700034974630747,-0.0014317557452585745,-0.0,-0.004295267235775725,-0.0,-0.0021476336178878623,-0.00859053447155145
-0.0011712056310767406,-0.001139322357681524,-0.0,-4.3098191946514876e-07,-0.0006908999384244805,-0.0016615117716188895,-0.0,-0.0009969070629713337,-0.0,-0.0009969070629713337,-0.003987628251885335
-1.2647632408848773e-05,-0.006460695799578499,-0.0,-1.057691924913515e-05,-0.003539337698899525,-0.00847966323694678,-0.0,-0.010175595884336138,-0.0,-0.0,-0.04070238353734455
-0.00016208655939217733,-0.0002680833986075216,-0.0,-2.010701718152723e-08,-0.00023045595622999302,-0.0002852914545992206,-0.0,-0.0,-0.0,-0.00011411658183968825,-0.000456466327358753
0.005729827484266992,0.002456828168126829,0.0,3.5745726720682735e-07,0.0030588967310670005,0.0008794328101817628,0.0,0.003517731240727051,0.0,0.005276596861090577,0.007035462481454102
0.00011717808027410389,0.0012900020720582987,0.0,3.995994322300534e-08,0.0004818387186146609,0.0009235242106781002,0.0,0.0,0.0,0.0,0.0014776387370849602
0.004821036683177743,0.003429149135026659,0.0,3.332613574293041e-07,0.0007956462371099659,0.00043909836485097443,0.0,0.0013172950945529239,0.0,0.0,0.0052691803782116955
0.002451505508556696,0.004555875911273568,0.0,8.928999405378356e-07,0.003531596157482454,0.005758120943415205,0.0,0.002657594281576248,0.0,0.005315188563152496,0.010630377126304992
-0.0003778585613905991,-0.003526680318048813,-0.0,-6.0069736190244634e-05,-0.0,-0.0003560590705722358,-0.0,-0.0,-0.0,-0.0,-0.004272708846866831
-0.0,-0.0008880291218908427,-0.006993229334890396,-2.836545051118206e-06,-0.0016151319229103381,-0.008158767557372128,-0.0,-0.0,-0.0,-0.0,-0.027972917339561584
-0.0011798995248633625,-0.0012491462433120654,-0.0,-1.8916156107192433e-07,-0.0007682385173134779,-0.00036433432096601897,-0.0,-0.0010930029628980573,-0.0,-0.0,-0.0021860059257961147
-0.0005171016004504875,-0.0010050802175675826,-0.0,-3.035321172037403e-07,-0.001376522906668646,-0.0009234174498902169,-0.0,-0.0007915006713344715,-0.0,-0.003166002685337886,-0.003166002685337886
-0.005672830934670216,-0.0028807266997767996,-0.0,-1.5432333713383256e-06,-0.00108575841804457,-0.0045371445521484605,-0.0,-0.0,-0.0,-0.009074289104296921,-0.018148578208593842
-0.010119223966584066,-0.0029900884966212833,-0.0,-1.9224843552615192e-06,-0.003821567105607823,-0.009418778764357049,-0.0,-0.0,-0.0,-0.0,-0.037675115057428196
0.0,0.006776389443667128,0.0,1.0551610230883945e-08,0.0018438669724848446,0.0014345179265827588,0.0,0.0,0.0,0.0,0.006885686047597244
0.0004385910443747829,0.0001937755788255213,0.0,6.489196338420857e-08,0.00040823354130623,0.0005086608944169938,0.0,0.0,0.0,0.0,0.0015259826832509813
0.0009387523102692277,0.002847403376310346,0.0,2.553744113457207e-07,0.004564098745216294,0.0030451397218874536,0.0,0.003321970605695404,0.0,0.004982955908543106,0.006643941211390808
-0.00019645187072436326,-0.0009407983183296571,-0.0,-0.00118164310929559,-0.0,-0.001743243942787306,-0.0,-0.0013074329570904794,-0.0,-0.0,-0.001743243942787306
-0.0018943204668988225,-0.0014999699808020419,-0.0,-2.909072787329026e-08,-0.0003822532194554073,-0.0005833216592007939,-0.0011666433184015883,-0.0,-0.0,-0.0017499649776023826,-0.0034999299552047653
4.390139291480487e-06,0.0007716445929489573,0.0,3.6378061016947455e-08,8.632749214671668e-05,0.00039717001107666917,0.0,0.0,0.0,0.0,0.000953208026584006
-2.0274684126943548e-05,-0.0023546946515984814,-0.0,-8.04539259387002e-08,-0.0007453120462450845,-0.0008241431280594685,-0.0,-0.0008241431280594685,-0.0,-0.0,-0.003296572512237874
-0.00015792402314059587,-0.004202117185815573,-0.0,-8.085950275761156e-07,-0.0029685217406578883,-0.00630317577872336,-0.0,-0.00630317577872336,-0.0,-0.0,-0.01260635155744672
0.0004228575737894747,0.0018345936123340958,0.0,2.064481313068439e-07,0.0008004833980528032,0.0009914899301952651,0.0,0.0016996970231918829,0.0,0.0,0.0033993940463837658
-0.0012437063335996364,-0.0034075430860794663,-0.0033543002253594756,-0.005160420427683527,-0.0,-0.0055905003755991264,-0.0,-0.0033543002253594756,-0.0,-0.0,-0.013417200901437902
-0.0,-0.01364885852964714,-0.0,-1.1263296142723162e-06,-0.007735035268675592,-0.0061772851104006455,-0.0,-0.0,-0.0,-0.0,-0.0296509685299231
0.0001351529431650139,0.006300765888401922,0.0,2.8634450553014664e-07,0.002739463429739966,0.003937978680251201,0.0,0.003150382944200961,0.0,0.0015751914721004805,0.006300765888401922
0.00044144345291914486,0.004525296936679487,0.0,1.2822917484899824e-06,0.0015959805719088583,0.0031870231474785413,0.0,0.003476752524522045,0.0,0.0,0.00695350504904409
-0.0008881757773929756,-0.000937065574458275,-0.0,-9.955936883316478e-08,-0.0005487523439031517,-0.0007633853171233362,-0.0,-0.0,-0.0,-0.0,-0.002035694178995563
-0.0033445161164265967,-0.0011897752782512483,-0.0,-8.90944515549763e-07,-0.0008760056726964321,-0.0031231601054095286,-0.0,-0.0,-0.0,-0.0,-0.01499116850596574
-0.0009651572478361622,-0.0,-0.0,-7.752620717640852e-09,-1.9228377841620875e-05,-4.606798857888351e-05,-0.0,-0.0,-0.0,-0.0,-0.001105631725893206
-4.806361059492896e-05,-0.004809543675514951,-0.0,-2.4584752404583646e-09,-0.002994083513413457,-0.0011477320134751585,-0.0,-0.0,-0.0,-0.0,-0.009181856107801268
-0.0023009752534618815,-0.003141761355203738,-0.0,-3.985137861932935e-07,-0.0028685647156208045,-0.0017181507411270444,-0.0,-0.0020617808893524537,-0.0,-0.00618534266805736,-0.008247123557409815
-0.00013020474565772407,-0.0035506605915280806,-0.0,-0.00224897554422957,-0.0,-0.0016447913034284495,-0.0,-0.0016447913034284495,-0.0,-0.0,-0.006579165213713798
1.4516117607917838e-05,0.00028361664372798177,0.0,2.1763269460380324e-08,0.00023816983485600937,0.00021551133125382826,0.0,0.00011755163522936087,0.0,0.00023510327045872173,0.00047020654091744346
0.00045090714604860356,0.0007208831394895459,0.0006678770262917851,1.193883694712046e-07,0.000938977022703094,0.0014470668902988677,0.0,0.0013357540525835703,0.0,0.0013357540525835703,0.0026715081051671406
0.0,0.01262471797324175,0.0,1.338724876330406e-06,0.006270971867699898,0.00757483078394505,0.0,0.005681123087958787,0.0,0.0,0.022724492351835147
-0.006052422182519255,-0.0026250120623436345,-0.0,-2.8454665743635086e-06,-0.00022088449325988538,-0.0013781313327304078,-0.0,-0.0016537575992764898,-0.0,-0.0,-0.006615030397105959
-0.002767850480892456,-0.0017532329262760949,-0.0,-8.975274234580176e-07,-0.0007503646355665351,-0.003164037546638891,-0.0,-0.0,-0.0,-0.005177515985409094,-0.0069033546472121255
-1.6634865514799656e-05,-0.0006464401780584007,-0.0,-9.622864038444197e-05,-0.0,-0.00033272656223594155,-0.0,-0.0,-0.0,-0.0,-0.0007985437493662596
-0.00011654361779303191,-0.0005069417313508677,-0.0,-1.8002487245131685e-07,-0.0012342929111151565,-0.0010350060348413555,-0.0,-0.000887148029864019,-0.0,-0.001774296059728038,-0.003548592119456076
-0.002697597735732455,-0.0020006470481923632,-0.0,-4.357452211197677e-06,-0.0023442364325558353,-0.00408465439005941,-0.0,-0.014004529337346548,-0.0,-0.0,-0.014004529337346548
0.0017807848800212179,0.004009138700120006,0.0,4.2593107199280125e-07,0.002801163191620804,0.004708100381390928,0.0,0.0016616824875497393,0.0,0.0,0.006646729950198957
-0.00031905378543208257,-0.0019659817675694996,-0.0,-2.558638182029113e-05,-0.0,-0.00029489726513542486,-0.0,-0.0,-0.0,-0.0,-0.0035387671816250995
-0.00026335955065193416,-0.004034188982158438,-0.0,-4.574452030339322e-06,-0.00491118658697549,-0.005883192265647723,-0.0,-0.007059830718777269,-0.0,-0.0,-0.028239322875109076
5.7050976853475365e-05,0.0001680786269157595,0.0,2.230926354447451e-08,0.00022695420895367099,0.0001187863372914262,0.0,0.00020363372107101634,0.0,0.0,0.0004072674421420327
-0.0005327732644471418,-0.0005142258634278075,-0.0,-6.868952118208515e-08,-0.00020319923289314427,-0.00035522181355210385,-0.0,-0.0,-0.0,-0.0017050647050500989,-0.0017050647050500989
5.713492097305727e-05,0.0009103712119681051,0.0,0.0011021830502049243,0.0,0.002138174491267195,0.0,0.0007546498204472452,0.0,0.0,0.003018599281788981
-0.0003791194541428935,-0.002130987464565619,-0.0010826791150615647,-1.0552821816873714e-06,-0.0002099456023119381,-0.0014435721534154196,-0.0,-0.0010826791150615647,-0.0,-0.0,-0.004330716460246259
0.0005895161448116984,0.0008920693935797372,0.0,0.0014789571525137748,0.0,0.0009243482203211093,0.0,0.0011092178643853311,0.0,0.0,0.0014789571525137748
0.0010221991611606457,0.001296756114471683,0.0,3.2986699928946837e-07,0.00047815171110536113,0.002225682369549956,0.0,0.0015710699079176161,0.0,0.0,0.0031421398158352322
-0.002960627866023495,-0.003713157788484903,-0.0018275698490199132,-1.5637099226378947e-07,-0.0038404393888187153,-0.0033505447232031744,-0.0,-0.0,-0.0,-0.0,-0.007310279396079653
-0.0024227936453455113,-0.0012615643121118216,-0.0,-0.003274111885244714,-0.0,-0.004783431350090658,-0.0,-0.004415475092391377,-0.0,-0.0,-0.008830950184782754
-0.00037655523888770415,-0.0019247067169657853,-0.0,-3.589874152816098e-07,-0.0013054532515072283,-0.001443530037724339,-0.0,-0.001443530037724339,-0.0,-0.0,-0.005774120150897356
0.0005347517861622431,0.001140742425275082,0.0,1.932291620712722e-07,0.0007015689909183632,0.0016635827035261616,0.0,0.0009981496221156969,0.0,0.0,0.0019962992442313938
8.735722575204676e-05,0.0013506632761710576,0.0,2.5647420280629274e-07,0.00039819840545880585,0.0012129311657720352,0.0,0.0011196287684049557,0.0,0.0,0.0022392575368099113
-0.0022134691792971128,-0.0013212795272402758,-0.0006503172673135733,-3.490358761865123e-07,-0.0004523946207398769,-0.0010838621121892888,-0.0,-0.0006503172673135733,-0.0,-0.0,-0.002601269069254293
2.3549833537142945e-05,0.0002242402245109876,0.0,2.2302445875322544e-07,0.00033782277301329226,0.0008240828250778797,0.0,0.00035317835360480554,0.0,0.0007063567072096111,0.0014127134144192221
-6.922442172752906e-05,-0.002482475175332548,-0.0,-7.094491390536156e-09,-0.0005350705406171119,-0.0005792442075775944,-0.0,-0.0,-0.0,-0.0008688663113663918,-0.003475465245465567
0.001256274807264804,0.002194798432019698,0.0,0.0018862833301016763,0.0,0.0022159022630968105,0.0,0.0,0.0,0.0,0.003545443620954897
-0.0,-0.0015173027584104743,-0.0,-3.8987917684238525e-07,-0.000748096229581512,-0.0009957299352068738,-0.0,-0.0019914598704137477,-0.0,-0.0009957299352068738,-0.003982919740827495
-7.470928674739123e-05,-0.0023621650192758113,-0.0,-1.1841589208602476e-06,-0.0015349783271932963,-0.002917968553223061,-0.0,-0.002188476414917296,-0.0,-0.0,-0.008753905659669183
2.7539325853242126e-05,0.0023374208466773196,0.0,1.4787741546630166e-05,0.0,0.001533932430631991,0.0,0.0,0.0,0.0,0.003346761666833435
-0.00017484155262400443,-0.0018555895267222352,-0.0,-2.0912937732097605e-06,-0.002413266789527226,-0.006332199259939629,-0.0,-0.005845107009175043,-0.0,-0.0,-0.011690214018350086
-0.0006159360058787579,-0.002543165280033062,-0.0,-5.377468801700447e-09,-0.0011163113424301643,-0.000476843490006199,-0.0,-0.0,-0.0,-0.0028610609400371947,-0.005722121880074389
0.0008942898427801954,0.0013244648075662457,0.0,1.6415876324222307e-07,0.0014539614284148547,0.00123367488124114,0.0,0.0006729135715860765,0.0,0.0006729135715860765,0.002691654286344306
0.0003708977109746083,0.00031333124656923495,0.0,1.8844350348168105e-07,0.0007802319578601502,0.0006729500636543797,0.0005981778343594486,0.0008972667515391729,0.0,0.00044863337576958644,0.0017945335030783458
-0.00021543183720382943,-0.0006844531978473231,-0.0,-1.2709022534995767e-07,-0.0005207796070577457,-0.00129760918758555,-0.0,-0.0,-0.0,-0.0011977930962328155,-0.002395586192465631
-0.0018082258057704609,-0.0016482860445966724,-0.0,-6.078889156500715e-07,-0.00026558061588130517,-0.0007635442706587527,-0.0,-0.0007635442706587527,-0.0,-0.0,-0.0030541770826350107
-0.017697804198658573,-0.0009210913865061018,-0.0,-5.173357280931369e-06,-0.0008409964833316582,-0.0008059549631928381,-0.0,-0.004835729779157036,-0.0,-0.0,-0.019342919116628145
-0.00039872504303133533,-0.0002281943058671678,-0.00013823308913107283,-4.7066777694991425e-08,-0.00014183916971710083,-0.00027646617826214566,-0.0,-0.00013823308913107283,-0.0,-0.00013823308913107283,-0.0005529323565242913
4.07307653406846e-06,0.0010840978873605295,0.0,3.957228982692706e-08,0.0017973201816766672,0.0008986600908383336,0.0,0.0004493300454191668,0.0,0.0,0.0017973201816766672
-3.854404180512291e-07,-0.0010110746977317064,-0.0,-0.0,-0.0,-0.0003159608430411582,-0.0,-0.0,-0.0,-0.0,-0.0015166120465975599
-0.0,-0.007159181999317172,-0.0,-0.006601865941817015,-0.0,-0.004510284659569819,-0.0,-0.004510284659569819,-0.0,-0.0,-0.018041138638279275
-0.00023008389255162217,-0.004873984894623549,-0.0,-1.2529481354919964e-07,-0.0007814915334751649,-0.005304916485916485,-0.0,-0.0,-0.0,-0.0,-0.007489293862470331
-0.0,-0.0006696501515692114,-0.0,-1.4637340940839454e-07,-0.0004706184804332492,-0.0003348250757846056,-0.0,-0.0005022376136769087,-0.0,-0.0005022376136769087,-0.0020089504547076346
0.0002936269473893971,0.00041858423944702124,0.0,3.2294690486822584e-08,0.0009970059389475365,0.00033441240868865293,0.0,0.0005732784148948335,0.0,0.0005732784148948335,0.001146556829789667
-0.001231840115139794,-0.0008120822534652843,-0.0,-9.498075193280958e-10,-0.00021658623945395626,-5.609778724595706e-05,-0.0,-0.0,-0.0,-0.0,-0.0013463468939029714
0.002222304653347515,0.0017523598044708645,0.0,3.599851796835979e-07,0.0015798666480655585,0.0009857023900148613,0.0,0.0019714047800297226,0.0,0.0,0.003942809560059445
-0.0,-0.0023592069822745655,-0.0,-3.908936287286466e-07,-0.00040388597794374333,-0.0006192918328470731,-0.0,-0.0,-0.0,-0.0009289377492706101,-0.0037157509970824404
-5.840627480289641e-05,-0.0007834763909614299,-0.0,-8.590877292736326e-08,-0.0002622942700175221,-0.0007426703289321887,-0.0,-0.0006855418420912511,-0.0,-0.00034277092104562556,-0.0013710836841825023
0.00013380027575599746,0.001171610641254111,0.0,6.728707821581255e-08,0.00029732241912644274,0.0009045523333211886,0.0,0.00036182093332847543,0.0,0.00036182093332847543,0.0014472837333139017
-0.0010024828051050834,-0.0030614795570665177,-0.0,-5.21302729900932e-07,-0.0022827988871169905,-0.0023811507666072922,-0.0,-0.001785863074955469,-0.0,-0.0,-0.007143452299821876
8.048292545403486e-05,0.0007747082335368523,0.0,1.4076323327646126e-07,0.0005778665073290806,0.0008319310007867335,0.0,0.0005546206671911556,0.0,0.0011092413343823113,0.0022184826687646226
0.00015595546918226308,0.0016721083417345402,0.0,6.358738231943814e-08,0.00066661606194613,0.0009975646356939019,0.0,0.0005985387814163412,0.0,0.0,0.0023941551256653646
8.569968492123973e-05,0.0006515150686653623,0.0,5.332520228795687e-08,0.00042072791359574753,0.00046222352844502054,0.0,0.0005546682341340246,0.0,0.0,0.0011093364682680492
-0.0003994069906362798,-0.002526229734533031,-0.0,-0.0010191468723438411,-0.0,-0.0010795225900475454,-0.0,-0.0009253050771836102,-0.0,-0.0,-0.0037012203087344406
-0.0014577212274577975,-0.0019611177961698784,-0.0,-7.229336227262549e-07,-0.0034916423370937627,-0.0036035539504621532,-0.0,-0.006177521057935119,-0.0,-0.0,-0.012355042115870239
0.0004754703019759843,0.008275755877243343,0.0,0.006715030589006601,0.0,0.004622097697396548,0.0,0.002773258618437929,0.0,0.0,0.011093034473751717
0.001212092106952577,0.001908740860625025,0.0,9.543360590595374e-08,0.0011364517589004073,0.0014664716368216655,0.0,0.0007332358184108328,0.0,0.0,0.002932943273643331
-0.0011034043932508523,-0.0020388222816693294,-0.0,-6.831620926485175e-07,-0.0011934619053866865,-0.004092635903645051,-0.0,-0.0018889088786054084,-0.0,-0.0037778177572108168,-0.0075556355144216335
-0.003418104757585995,-0.002967551491108206,-0.0,-0.0019431375825230298,-0.0,-0.007789822664159048,-0.0,-0.0,-0.0,-0.0,-0.04673893598495431
0.00010502974840419621,0.0003528500690422305,0.0,2.0729906221900494e-08,0.00018685712351888554,0.00026757796902369144,0.0,0.00024699504832956134,0.0,0.0,0.0004939900966591227
-0.00019104603774126248,-0.00037456837681733063,-0.0,-9.905933028656674e-08,-0.00031881340250334043,-0.00041399662700862864,-0.0,-0.00031049747025647153,-0.0,-0.0012419898810258861,-0.0012419898810258861
-0.00101110505701162,-0.0015563348498071753,-0.0,-1.1970137246085797e-07,-0.0003644868551515802,-0.0010814238478439565,-0.0,-0.0,-0.0,-0.0,-0.002883796927583884
0.0018553067453019596,0.000666721891711924,0.0,1.458635942608528e-08,0.0006055421483305781,0.0002763386788016528,0.0,0.0,0.0,0.0016580320728099168,0.0022107094304132224
-1.7976937933114387e-05,-0.0019044206973071415,-0.0,-2.3971694696456863e-07,-0.003084513522595008,-0.0010867618109633146,-0.0,-0.0013041141731559777,-0.0,-0.0,-0.005216456692623911
-0.0002678884156359325,-0.00010224420323899067,-0.0,-5.9745425194426554e-05,-0.0,-2.4399184863850042e-05,-0.0,-0.0,-0.0,-0.0,-0.0002927902183662006
-0.0002025285799350499,-0.003643882216723556,-0.0,-1.540794584090692e-07,-0.003783680550116463,-0.0008198734987628,-0.0,-0.0016397469975256,-0.0,-0.0,-0.0065589879901024
-0.00011254924613930461,-0.0006181681710576898,-0.0,-8.983964893257755e-08,-0.00024900636046441463,-0.000524988409979141,-0.0,-0.0005727146290681538,-0.0,-0.0,-0.0011454292581363076
-0.009707146134898294,-0.0001684044828771938,-0.0,-4.6843537375507246e-07,-0.0006227304899437126,-0.0008841235351052712,-0.0,-0.0,-0.0,-0.0,-0.010609482421263259
-6.076226907045505e-06,-0.00011335131250739214,-4.6981136105037535e-05,-6.716826706712509e-09,-0.00012248594980010744,-7.83018935083959e-05,-0.0,-4.6981136105037535e-05,-0.0,-0.0,-0.00018792454442015014
0.002777813191529296,0.0021405193423181916,0.0,0.0029619150081908736,0.0,0.002921808902264331,0.0,0.0013485271856604605,0.0,0.0,0.005394108742641842
-0.0,-0.00276728559771993,-0.0,-0.0020775317258501682,-0.0,-0.002421374898004939,-0.0,-0.0020754641982899474,-0.0,-0.004150928396579895,-0.00830185679315979
-0.0013238972188054639,-0.005831412255564314,-0.0,-1.9833021657155715e-08,-0.001036308800088644,-0.000463862338510797,-0.0,-0.0,-0.0,-0.0,-0.011132696124259144
-7.445459755587634e-05,-0.001386560117984948,-0.0,-2.812924533688652e-07,-0.001121587725872743,-0.0012511538564629805,-0.0,-0.0006824475580707167,-0.0,-0.0006824475580707167,-0.0027297902322828667
-0.0009237833598936263,-0.0042808377947827535,-0.0,-5.306861263220832e-07,-0.0036909125757318213,-0.0047541996663212314,-0.0,-0.0025931998179933987,-0.0,-0.0,-0.010372799271973595
0.002491253807039648,0.0016466037780485828,0.0,1.5355843129207518e-07,0.001262873506294652,0.0008644669834755057,0.0,0.0,0.0020747207603412144,0.003112081140511821,0.004149441520682429
-9.809963589766784e-05,-0.0004095241264885849,-0.000230357321149829,-3.3627257537135686e-08,-0.0002654116961074116,-0.00038392886858304833,-0.0003071430948664386,-0.000230357321149829,-0.0,-0.000230357321149829,-0.000921429284599316
-3.974888148614136e-05,-0.0008975974685619716,-0.0,-3.157587790463911e-08,-0.0006539973207896312,-0.0006343597494163936,-0.0,-0.0,-0.0,-0.0010874738561423888,-0.0021749477122847776
-9.278012313773829e-05,-0.009054123912380514,-0.0,-0.005358238037898916,-0.0,-0.0033952964671426925,-0.0,-0.004074355760571231,-0.0,-0.008148711521142462,-0.016297423042284924
0.00016535718124433327,0.0013687242501143279,0.0,3.5050877463034536e-09,0.0006622700055112009,0.00028179616914118506,0.0,0.0,0.0,0.0,0.001690777014847111
8.609011986595485e-06,0.00040943011626849506,0.00019540982821905447,1.116214042413519e-07,0.0006541981205594432,0.0006839343987666906,0.0,0.0007816393128762179,0.0,0.0,0.0007816393128762179
-5.03773876126833e-05,-0.0007105000319913161,-0.0,-3.399166635215211e-07,-0.00022510494491829216,-0.0008548203509895524,-0.0,-0.00046626564599430134,-0.0,-0.0009325312919886027,-0.0018650625839772054
-0.020390155158670775,-0.0024761711024992032,-0.0,-0.0,-0.0,-0.0,-0.007428513307497611,-0.0,-0.0,-0.0,-0.022285539922492832
0.0022571913529466072,0.0009809892239418217,0.0,5.499353161014115e-07,0.0010076465398098065,0.0030042794983218303,0.0,0.0012875483564236416,0.0,0.002575096712847283,0.005150193425694566
-0.00046206944692284385,-0.004190473204128257,-0.0,-3.995263695716467e-07,-0.0020086942206745226,-0.0029333312428897803,-0.0,-0.0021999984321673352,-0.0,-0.0043999968643346704,-0.008799993728669341
0.0005172831513446574,0.0014346618945052382,0.0,0.0009742022288075961,0.0,0.0015976916552444696,0.0,0.0013694499902095454,0.0,0.0013694499902095454,0.002738899980419091
-3.957868185134362e-05,-0.0009057179839555106,-0.0008391210733705466,-1.380067784854546e-07,-0.0008901980082713625,-0.002657216732340064,-0.0,-0.0008391210733705466,-0.0,-0.0008391210733705466,-0.0033564842934821863
0.0014463600191063557,0.0011242370521306524,0.0,1.7181493182813161e-07,0.0014385612897571888,0.0010731353679428954,0.0,0.0021462707358857907,0.0,0.0,0.0021462707358857907
-0.010481830947775262,-0.0031985036263426853,-0.0026513911639419636,-2.6151406809090347e-07,-0.0014755568216720492,-0.0026513911639419636,-0.0,-0.0,-0.0,-0.0,-0.010605564655767855
0.0001731469121235714,0.0038543402266132645,0.0,1.3093777265959205e-08,0.0015640800919590058,0.001873637610159226,0.0,0.0,0.0,0.0011241825660955355,0.004496730264382142
-0.0003778318777561376,-0.00499033087385779,-0.0,-2.7401722445596287e-08,-0.0009536628262478481,-0.0009139268751541882,-0.0,-0.0,-0.0,-0.0,-0.007311415001233505
0.0005207487673938452,0.0015731678961816884,0.0,0.0024173067673035698,0.0,0.0024173067673035698,0.0,0.0024173067673035698,0.0,0.0,0.0024173067673035698
0.0020660487758016066,0.001720457259109311,0.0,0.0009133916793795674,0.0,0.0007527000508603236,0.0,0.0011290500762904854,0.0,0.0005645250381452427,0.0022581001525809707
-0.0022134626860791486,-0.008752343417895608,-0.0,-0.0020990977261364533,-0.0,-0.0031329411098149056,-0.0,-0.0,-0.0,-0.0,-0.012531764439259623
-0.0007933778632426949,-0.006461497149528594,-0.0,-7.244884344223796e-08,-0.0016089894087758943,-0.003854870458525582,-0.0,-0.0,-0.0,-0.0,-0.009251689100461397
0.17963586893007943,0.08725959055350203,0.0,2.919105460528614e-05,0.03755956289042043,0.02454175984317245,0.06544469291512653,0.0490835196863449,0.0,0.0,0.1963340787453796
0.00025112555361145756,0.0028823499377377618,0.0,3.3990014441549185e-07,0.000806311397938852,0.0017708054138761249,0.0,0.0019317877242285,0.0,0.0,0.003863575448457
-0.0007394242133788485,-0.0008978136368846373,-0.0,-0.0009603048588870123,-0.0,-0.0003927934661370288,-0.0,-0.00047135215936443465,-0.0,-0.0,-0.0018854086374577386
-0.0011330505756509362,-0.0014089511687798689,-0.0,-2.9809947605492586e-07,-0.0013558496369909497,-0.0017752784726626349,-0.0,-0.0008876392363313174,-0.0,-0.0,-0.0035505569453252697
5.886114113212134e-05,0.0004301531529475426,0.0,7.226566680123611e-09,0.00010821531189500308,0.0002760149398080065,0.0,0.0,0.0,0.0,0.0006022144141265597
-0.011862842654297536,-0.0008645307421313255,-0.0,-2.0750623216182257e-07,-0.0023088609058876837,-0.0017020448985710494,-0.0,-0.0,-0.0,-0.0,-0.013616359188568395
-0.0,-0.005163518934332687,-0.0,-0.0,-3.4270914131047445e-05,-0.001042633630971023,-0.0,-0.0,-0.0,-0.0,-0.006255801785826141
-2.233325673745442e-06,-0.0053701965477801995,-0.0,-0.0,-0.0,-0.0013425491369450499,-0.0,-0.0,-0.0,-0.0,-0.0053701965477801995
0.0010041608413245162,0.0008079347632750465,0.0,4.337578454652579e-08,0.00014753591329370408,0.00014138858357313314,0.0,0.0,0.0,0.0,0.0011311086685850652
-4.837237716833019e-06,-4.351660499771265e-05,-0.0,-4.617038293230425e-09,-2.3017478625476797e-05,-2.7573021270102414e-05,-0.0,-2.3634018231516355e-05,-0.0,-4.726803646303271e-05,-9.453607292606542e-05
0.0053177841220503315,0.0040353858716298575,0.0,6.386444857308644e-07,0.0024711196762032166,0.002841994318129564,0.0,0.0031003574379595243,0.0,0.0015501787189797622,0.006200714875919049
9.007519512475832e-05,0.00029710932762420586,0.0,7.327744781084951e-08,0.0001356368669588766,0.00032496332708897515,0.0,0.00025997066167118013,0.0,0.0,0.0005199413233423603
0.007162539722136319,0.0022269610083294916,0.0,5.646583764302401e-07,0.002936222459496405,0.002063213875364088,0.0027509518338187837,0.002063213875364088,0.004126427750728176,0.0,0.008252855501456352
-0.0,-0.007764762919613141,-0.0,-1.0180200832878791e-06,-0.005570373398852906,-0.0029117860948549286,-0.0,-0.011647144379419714,-0.0,-0.0,-0.02329428875883943
-0.0037906387834929956,-0.09273520795649808,-0.0,-4.61228873410799e-06,-0.10231112616939735,-0.04057165348096791,-0.0,-0.08114330696193582,-0.0,-0.04057165348096791,-0.16228661392387164
-0.00021789086910405675,-0.0008543546887395166,-0.0,-1.2548805866420988e-07,-0.001595583361381113,-0.0010194004808823777,-0.0,-0.0006116402885294267,-0.0,-0.0012232805770588534,-0.0024465611541177068
-8.326484411760769e-05,-8.198890338942628e-05,-0.0,-0.00013449505728978727,-0.0,-9.71965225664973e-05,-0.0,-8.331130505699768e-05,-0.0,-0.0,-0.00016662261011399535
-3.654733157914648e-05,-0.0015377686695041033,-0.0,-6.2371169155805316e-09,-0.0011843158837939538,-0.001057215960284071,-0.0,-0.0005766632510640387,-0.0,-0.0,-0.002306653004256155
0.0003143413793886356,0.0005821206013622998,0.0,4.2074458095377125e-08,0.0007355220346169477,0.000272869031888578,0.0,0.0003274428382662936,0.0,0.0006548856765325872,0.0013097713530651745
-0.001014870747872619,-0.0007870109075721738,-0.0,-2.6600900733370333e-07,-0.000538931382359206,-0.0013772690882513047,-0.0,-0.0008263614529507827,-0.0,-0.0016527229059015655,-0.003305445811803131
-0.00011089724751684821,-0.001490605637646047,-0.0,-4.848376712286634e-08,-0.000882802868829151,-0.0009517718429564286,-0.0,-0.0006345145619709524,-0.0,-0.0006345145619709524,-0.0025380582478838096
-0.00029253731443908116,-0.0033732431108738953,-0.0,-1.046564176512466e-07,-0.002391652281663334,-0.0022136907915109934,-0.0,-0.0016602680936332452,-0.0,-0.0,-0.006641072374532981
-0.0007848391310812562,-0.00666042767409938,-0.0,-6.242568007580368e-05,-0.0,-0.0032377078971316427,-0.0,-0.0,-0.0,-0.0,-0.015540997906231889
0.0012639540059808474,0.0005763095329289278,0.0,3.1198536982889793e-07,0.0011704094905700094,0.0018369866362109575,0.0,0.002593392898180175,0.0,0.0,0.002593392898180175
-0.0,-0.0008038766532481723,-0.0,-0.0001363809274380031,-0.0,-0.00025838892425834105,-0.0,-0.0,-0.0,-0.0,-0.0010335556970333642
-7.133982004275774e-05,-0.0012047437563258965,-0.0005929598175666523,-1.1431330130994793e-07,-0.0004137312674917232,-0.0011859196351333046,-0.0,-0.0005929598175666523,-0.0,-0.0011859196351333046,-0.002371839270266609
-0.0008521998083658444,-0.0023608486142768074,-0.0,-2.381755771533348e-07,-0.004400166327197803,-0.0007746534515595774,-0.0,-0.002323960354678733,-0.0,-0.002323960354678733,-0.009295841418714932
-3.897868903701973e-06,-7.321501674976775e-06,-0.0,-1.356631192716285e-05,-0.0,-6.217892966616306e-06,-0.0,-6.783155963581425e-06,-0.0,-0.0,-1.356631192716285e-05
5.239907530310169e-05,2.4544233139163588e-05,1.4317469331178762e-05,8.434007265092408e-10,1.0218938110462195e-05,7.158734665589381e-06,0.0,0.0,0.0,0.0,5.726987732471505e-05
-0.00012063892957402123,-0.001261205108715137,-0.0,-0.0012476317594298134,-0.0,-0.0011035544701257448,-0.0,-0.0006019388018867699,-0.0,-0.0006019388018867699,-0.0024077552075470795
0.0009497444506205592,0.006042289101673444,0.0,9.4443696346209e-08,0.0014148108913385434,0.001790759068439509,0.0,0.0,0.0,0.0,0.006139745377506887
-0.00016659407166684926,-0.009599497100002045,-0.0,-4.695541968316799e-08,-0.0011268974856524128,-0.004499764265625958,-0.0,-0.0,-0.0,-0.0,-0.021598868475004602
-0.0,-0.0033601083395310397,-0.0,-1.011310078934687e-06,-0.004243553867827219,-0.00294009479708966,-0.0,-0.007056227513015186,-0.0,-0.0,-0.014112455026030372
0.0008001893060809091,0.0006077173679253317,0.0,2.205156173163283e-07,0.0003467952371313033,0.0008640981325188311,0.0,0.000797629045401998,0.0,0.000398814522700999,0.001595258090803996
0.0012505820702037752,0.0019215982930081005,0.0,3.5715626608975586e-07,0.0023872034874290065,0.001552060159737312,0.0,0.001164045119802984,0.0,0.0,0.004656180479211936
0.00022349062231214806,0.00015194978227922956,0.0,1.745508149186744e-08,0.00024018801182561916,0.00016619507436790737,0.0,9.971704462074443e-05,0.0,0.00029915113386223325,0.0003988681784829777
-9.507566190646763e-06,-0.00027902176271524736,-0.0,-4.6591367515729124e-08,-0.0007324321271275245,-0.0002746620476728217,-0.0,-0.0007324321271275245,-0.0,-0.00036621606356376226,-0.0007324321271275245
0.0003232488996024573,0.003019410906575456,0.0,1.4022457242400421e-07,0.0009116815855250684,0.0009907442037200714,0.0,0.0008492093174743469,0.0,0.0008492093174743469,0.0033968372698973876
-2.4943675975002087e-05,-0.004376411186407552,-0.0012092715120336657,-5.689283598795098e-07,-0.0004357583605102182,-0.0006046357560168329,-0.0,-0.0012092715120336657,-0.0,-0.0,-0.004837086048134663
-0.0036630716086995165,-0.0004787016790390782,-0.001077078777837926,-4.9000451076037595e-08,-0.00028097707247945887,-0.0012565919074775805,-0.0,-0.0,-0.0,-0.002154157555675852,-0.004308315111351704
6.715935074520579e-05,3.0359243175100463e-05,0.0,9.393253537007678e-09,3.751214486057305e-05,4.174395936576314e-05,0.0,4.55388647626507e-05,0.0,6.830829714397605e-05,9.10777295253014e-05
-0.004249503187634632,-0.005703069666708589,-0.0074852789375550255,-0.006825244701086867,-0.0,-0.004990185958370016,-0.0,-0.0074852789375550255,-0.014970557875110051,-0.0,-0.029941115750220102
-0.0,-0.008602704239058604,-0.0,-1.4358205796463659e-06,-0.0012402067896125674,-0.003565594520136132,-0.0,-0.0,-0.0,-0.0,-0.014262378080544529
-0.00024636945274287365,-9.158155147691249e-05,-7.212047178806861e-05,-3.4665849934375625e-08,-0.00011155469149270992,-0.00013222086494479244,-0.0,-0.00014424094357613722,-0.00014424094357613722,-0.00014424094357613722,-0.00028848188715227443
0.00014265233865421318,0.0014665671007088718,0.0,1.8337349129904098e-07,0.0025709558913296396,0.002771811820339768,0.0,0.0009239372734465893,0.0,0.003695749093786357,0.003695749093786357
0.0009822502527687006,0.001438073699722679,0.0,2.0299807859031478e-07,0.0020518750189294182,0.0013394960670803989,0.0,0.002191902655222471,0.0,0.0007306342184074904,0.0029225368736299617
0.00034449938730713944,0.0010226848429910485,0.0,1.399859427831278e-07,0.0009804435125196792,0.0008053643138554509,0.0,0.0010738190851406011,0.0,0.0010738190851406011,0.0021476381702812022
-0.00013930131301356585,-0.0025975422474674437,-0.0,-0.0023209767875089138,-0.0,-0.0018049098704828927,-0.0,-0.0012032732469885953,-0.0,-0.0,-0.004813092987954381
0.0028266280449533434,0.0017230517207165428,0.0,6.432141537548694e-07,0.0013954978969726976,0.0023344571700030584,0.0,0.0017508428775022938,0.0,0.0008754214387511469,0.0035016857550045875
-4.309046378383705e-05,-0.0011142865363345186,-0.0,-3.975253390605364e-08,-0.00021913059644304244,-0.0003000002213208318,-0.0,-0.0,-0.0,-0.00045000033198124787,-0.0018000013279249915
-0.002261311827339192,-0.002527581099554633,-0.0,-1.988014093349677e-06,-0.0015685289145192724,-0.0036860557701838405,-0.0,-0.004423266924220608,-0.0,-0.0,-0.008846533848441217
-0.00020224217748699227,-0.0002176341088851424,-0.0,-3.2547039979508565e-08,-0.00012500808590836977,-3.8085969054899915e-05,-0.0,-0.00011425790716469979,-0.0,-0.0003427737214940994,-0.00045703162865879917
-0.0031275983877804277,-0.0031450545993931467,-0.0,-1.0132648924565821e-06,-0.0030007923123340267,-0.0027519227744690036,-0.0,-0.0033023073293628052,-0.0,-0.0,-0.013209229317451221
0.0,0.0026114334391453167,0.0,0.0011016695162450422,0.0,0.0009347744696940623,0.0,0.0009347744696940623,0.0,0.0,0.003739097878776249
0.0003668255480819971,0.00014942610667257567,0.00023534611800930675,9.044099947232383e-08,0.00026555228063380554,0.0007452627070294713,0.0,0.00023534611800930675,0.0,0.0004706922360186135,0.000941384472037227
0.0008664103587730582,0.0004344414839824832,0.0,1.2143756031282382e-07,0.0002379983781817081,0.0004105472023634467,0.0,0.0005473962698179289,0.0,0.00027369813490896443,0.0010947925396358577
0.0007231259430771065,0.0020040971198797553,0.0,1.4933205656776732e-07,0.0014867350916499271,0.0016439859186513617,0.0,0.001972783102381634,0.0,0.0006575943674605447,0.0026303774698421788
-0.0024113226171787274,-0.0017569794845592392,-0.0,-0.0013571578251258844,-0.0,-0.00021962243556990482,-0.0,-0.0006588673067097147,-0.0,-0.0,-0.002635469226838859
-3.835606105214247e-06,-0.0007894850062238106,-0.0,-0.0009023745883583327,-0.0,-0.0002878330751857642,-0.0,-0.0010361990706687515,-0.0,-0.0,-0.0013815987608916686
2.990835618835911e-05,0.0009163215492671259,0.0,1.7213164844327695e-07,0.0002868484849879698,0.0006872411619503445,0.0,0.0008246893943404133,0.0,0.0,0.0016493787886808265
-0.0003682875980260962,-0.0009492374008856491,-0.0,-2.355666767186909e-07,-0.002163270765427052,-0.0017250564304556511,-0.0,-0.0011500376203037674,-0.0,-0.0023000752406075347,-0.004600150481215069
3.672372439992485e-05,0.00011032684458616481,0.00011210630982142555,5.618280676405049e-09,8.773537290372435e-05,5.605315491071278e-05,0.0,0.0,0.0,0.0,0.0002242126196428511
-0.0003254199898426306,-0.0009349198948024491,-0.0,-1.5666443972713365e-08,-0.0001969898106105494,-0.0003146365030585165,-0.0,-0.0,-0.0,-0.0,-0.0015102552146808793
-7.054536937242802e-06,-0.0005475662229788924,-0.0,-2.691356300574807e-08,-0.00038317553440776297,-0.00021560420029793887,-0.0,-0.00021560420029793887,-0.0,-0.0,-0.0008624168011917555
-0.0030831861759212124,-0.0011232621507337498,-0.0,-0.00010828710601887027,-0.0,-0.0004212233065251562,-0.0,-0.0,-0.0,-0.0,-0.0033697864522012496
-0.0007435438339294488,-0.0014316249675025555,-0.0,-2.2896218011222977e-07,-0.00022874877198138664,-0.0010960878657441445,-0.0,-0.0009395038849235522,-0.0,-0.0,-0.003758015539694209
-0.0,-0.0005650195513784824,-0.0,-1.221250345145568e-07,-0.0002763682588264315,-0.0008475293270677236,-0.0,-0.0009534704929511891,-0.0,-0.0,-0.0012712939906015855
-0.0004734126720093428,-0.0006441811364564768,-0.0,-0.0005561985253435147,-0.0,-0.001449407557027073,-0.0,-0.00048313585234235765,-0.0009662717046847153,-0.0,-0.0019325434093694306
-0.00013240286126860732,-6.871796041215861e-05,-3.8653852731839226e-05,-1.005375667016785e-09,-2.760893446428933e-05,-5.153847030911897e-05,-5.153847030911897e-05,-0.0,-0.0,-0.0,-0.0001546154109273569
0.00039247896581848864,0.0001675085012019838,0.0,3.470089844555935e-08,0.00011470690843179327,0.0001282486962327689,0.0,0.00010992745391380188,0.0,0.0,0.00043970981565520753
0.00017578493029246677,0.00028483930849802227,0.0,3.3389833580260754e-08,9.066884935768624e-05,0.00021644039560211558,0.0,0.0,0.0,0.0,0.00047223359040461584
-0.0,-0.0014558530708013722,-0.0,-1.744993945145227e-07,-0.0008645284012914302,-0.0005879406632082465,-0.0,-0.001175881326416493,-0.0,-0.0,-0.002351762652832986
4.902005527988372e-06,0.0001250701716373302,0.0,3.5418215663945724e-10,6.373646764935735e-05,6.871587918446339e-05,0.0,0.0,0.0,4.58105861229756e-05,0.0001832423444919024
0.0005760488198294825,0.0009897078711868328,0.0,1.278740424530956e-07,0.00047964705914189444,0.0007250185567996564,0.0,0.0003625092783998282,0.0,0.0,0.0014500371135993128
0.002076349514360144,0.0035372528954964537,0.0,4.7049115630499045e-07,0.003229442951627781,0.0041623708640971206,0.0,0.0038421884899358036,0.0,0.0,0.007684376979871607
-0.0,-0.0007917570887855682,-0.0,-0.0,-0.0036326159475694535,-0.008313449432248501,-0.0,-0.0,-0.0,-0.0,-0.04988069659349103
-1.99403392186416e-06,-0.0007294788789609445,-0.0,-5.636819993803513e-08,-0.0016259629149600785,-0.00041627870810271293,-0.0,-0.0009990688994465113,-0.0,-0.001498603349169767,-0.0019981377988930226
3.416466297868638e-05,0.0011007451303585234,0.0,0.0008478532343717264,0.0,0.0005417729938483358,0.0,0.000722363991797781,0.0,0.0,0.001444727983595562
-0.008772655179907614,-0.0009074897757927286,-0.0,-0.0029578935042467894,-0.0,-0.003811457058329463,-0.0,-0.0,-0.0,-0.002858592793747097,-0.011434371174988389
0.0009774634071352153,0.0005917386219408024,0.0,6.981898479305217e-08,0.0005279337618358811,0.0002662823798733611,0.0,0.0005325647597467222,0.0,0.0,0.0010651295194934443
3.924772400189679e-05,0.0003179217122847356,0.00020029067873938346,7.132357844096845e-08,0.00020899896911935663,0.000701017375587842,0.0,0.00020029067873938346,0.0,0.00020029067873938346,0.0008011627149575338
-0.00184297151245169,-0.0007993200581271558,-0.0,-8.291537996825102e-08,-0.0004028573092960865,-0.00016785721220670264,-0.0006714288488268108,-0.0,-0.0,-0.0005035716366201082,-0.0020142865464804326
3.5031197148472844e-05,0.000394689638612713,0.0,1.0646487438384137e-07,0.00013979824156259881,0.00046444082474685614,0.0,0.00021435730372931826,0.0004287146074586365,0.0004287146074586365,0.000857429214917273
-0.005993350440160258,-0.001424231458701509,-0.0,-2.904586087800958e-07,-0.001885558605106998,-0.0018693037895457312,-0.0,-0.0,-0.0,-0.0018693037895457312,-0.007477215158182925
-0.0,-0.0027685086517256637,-0.0,-0.0038469369493448966,-0.0,-0.0016516670933590604,-0.0,-0.003964001024061746,-0.0,-0.0,-0.007928002048123491
0.00022941059980241456,0.0010115822098103516,0.0003621004501025691,8.148091838960501e-08,0.0007081425324179807,0.0006638508251880432,0.0,0.0007242009002051382,0.0,0.0003621004501025691,0.0014484018004102765
0.00021292021616634891,0.0011254691376727066,0.0,3.258932432762071e-07,0.0003279581668518986,0.0013200316215788927,0.0,0.0007543037837593672,0.0,0.0,0.0015086075675187344
0.002657426450302913,0.0009301104736815069,0.0,2.3698410765399596e-07,0.0015609870427457657,0.0012925799965132709,0.0,0.0017234399953510277,0.0,0.0017234399953510277,0.0034468799907020555
-8.637505083994526e-05,-0.0061112270781330785,-0.0,-2.666400349730718e-05,-0.0,-0.001936099957943023,-0.0,-0.0,-0.0,-0.0,-0.006638056998661793
-0.00029283541922703674,-0.001253703253527999,-0.0,-0.004001176887420552,-0.0,-0.002025212948006768,-0.0,-0.004556729133015229,-0.0,-0.0,-0.0060756388440203046
-0.0,-0.0027893661342901456,-0.0,-2.123931708317601e-07,-0.0006814444410328099,-0.0027705190658152126,-0.0,-0.0011873653139208053,-0.0,-0.0,-0.004749461255683221
-6.210887612002551e-05,-0.0007741513011198811,-0.0,-1.6527063563271066e-07,-0.00035076627159980707,-0.0008467279855998702,-0.0,-0.000508036791359922,-0.0,-0.000508036791359922,-0.002032147165439688
-1.7184504243701498e-05,-0.007224014466481178,-0.0,-5.641080791894911e-10,-0.0024734397358060554,-0.0010535021096951713,-0.0,-0.0,-0.0,-0.0,-0.012642025316342061
0.00012190450536286556,0.0001558100728313869,0.0,2.5405955401432573e-08,0.00035900075348797053,0.0002646479913533116,0.0,0.00014435344982907907,0.0,0.00014435344982907907,0.0005774137993163163
0.0005001973169757901,0.001259691558611131,0.0,0.0018733555293574487,0.0,0.0022044602275694794,0.0,0.0013226761365416875,0.0,0.0019840142048125316,0.002645352273083375
7.185473937635072e-07,0.00018605170816801266,0.0,4.338567209461118e-11,8.630659533880809e-05,0.00014178940662804191,0.0,0.0,0.0,0.0,0.0003781050843414451
8.061739904263413e-05,0.00018040410628463916,7.103411684957667e-05,1.0988536295926176e-08,8.396850299592568e-05,9.471215579943555e-05,0.0,0.0,0.0,0.0,0.0002841364673983067
-0.00031235564202541563,-0.002596091525378201,-0.0,-1.631144212478323e-08,-0.0004182960769790961,-0.00026724471584775583,-0.0,-0.0,-0.0,-0.0008017341475432679,-0.0032069365901730715
-4.115681105017392e-05,-0.0009314594471741493,-0.0,-1.9042531874240267e-07,-0.0005707054164322162,-0.0016729501913062027,-0.0,-0.0015442617150518796,-0.0,-0.0,-0.003088523430103759
0.0041646335247937935,0.0013221058808869182,0.0,3.4924786752298617e-07,0.0013580326711284106,0.0015617375717976725,0.0,0.0,0.0,0.003123475143595345,0.0041646335247937935
-0.000569045902274676,-0.0011559058528427509,-0.0,-0.0009691693511355246,-0.0,-0.0005354563877139214,-0.0,-0.0005354563877139214,-0.0,-0.0005354563877139214,-0.0021418255508556857
-0.0,-0.0008774723651464465,-0.0,-4.346487910349057e-08,-0.002412579053538193,-0.0008375872576397899,-0.0,-0.0006281904432298424,-0.0,-0.0012563808864596848,-0.0025127617729193696
-0.00017525162308796303,-0.00043746422303541364,-0.0,-3.2128525308872583e-07,-0.0009586172539558631,-0.003445030756403884,-0.0,-0.0011483435854679612,-0.0,-0.0,-0.004593374341871845
3.4948470348070447e-05,0.0014922490109335552,0.0,1.4555769639168848e-09,0.0006812441136870577,0.0008704785897112406,0.0,0.0,0.0,0.0,0.0014922490109335552
-1.0995827312450354e-05,-6.553677851800302e-05,-0.0,-0.00012414519027264964,-0.0,-9.434124972148019e-05,-0.0,-6.659382333280954e-05,-0.0,-0.0,-0.00013318764666561908
-0.0005564785602962682,-0.000896100770763582,-0.0,-8.808023718415452e-08,-0.00068176621723794,-0.000712807431289213,-0.0,-0.0008553689175470556,-0.0,-0.0,-0.0017107378350941112
0.00019494197609719143,0.0004127334005922387,0.0,4.694427879288915e-08,0.0001405428064268391,0.00011404475542680277,0.0,0.00017106713314020422,0.0,0.00017106713314020422,0.0006842685325608169
-0.0022888797809584066,-0.0017827828304272603,-0.0,-0.0025794644448607377,-0.0,-0.0021059122184422015,-0.0,-0.0014039414789614678,-0.0,-0.0014039414789614678,-0.005615765915845871
-0.0004887740571650745,-0.002448367851085028,-0.0,-1.6692816905668178e-08,-0.000898657452124339,-0.0008569287478797595,-0.0,-0.0,-0.0,-0.0012853931218196398,-0.005141572487278559
0.00016463379916895792,0.0005059143015596076,0.0,3.38612138915468e-07,0.0003818084546804228,0.0006351424111971161,0.0,0.0010393239455952809,0.0,0.0,0.001385765260793708
-0.0017871581692088718,-0.0008474882115590931,-0.0010678351465644575,-1.2494586813354725e-07,-0.0005727310594790932,-0.0009788488843507526,-0.0,-0.0005339175732822287,-0.0010678351465644575,-0.0005339175732822287,-0.002135670293128915
-3.996043283447825e-05,-0.0012221080383657268,-0.0,-4.266752783499128e-07,-0.0008925809523060761,-0.0015398561283408159,-0.0,-0.0015398561283408159,-0.0,-0.0007699280641704079,-0.0030797122566816318
-0.001989610279393386,-0.0007248520828897556,-0.0,-8.778515657285716e-05,-0.0,-0.0,-0.0,-0.0,-0.0,-0.0010872781243346336,-0.0021745562486692673
-0.01134352206688218,-0.0,-0.0,-0.0,-0.001378330740175463,-0.0005165820464091321,-0.0,-0.0,-0.0,-0.0,-0.012397969113819188
-0.004043289227519213,-0.0012258867954083007,-0.0,-3.500010807156737e-07,-0.0017974165391980046,-0.0022985377413905633,-0.0,-0.0,-0.0,-0.0,-0.011032981158674706
0.00012369580680057806,0.005211297802746587,0.0,8.030250496860152e-09,0.0018812706937513344,0.0016509930538873888,0.0,0.0,0.0,0.0,0.0056605476133281905
-0.0,-0.003579152811945484,-0.0,-0.0,-0.0022112939764237106,-0.0031317587104522995,-0.0,-0.0,-0.0,-0.0,-0.008351356561206131
-1.2749305678513678e-05,-0.006687054109015496,-0.0,-0.0008026012113876628,-0.0,-0.0035107034072331352,-0.0,-0.0,-0.0,-0.0,-0.01203669739622789
0.006138293676540785,0.0026622556155559388,0.0016772210378002415,2.344614568712285e-07,0.0010792552764975465,0.003633978915233856,0.004472589434133977,0.0,0.0,0.005031663113400724,0.006708884151200966
-0.0014052622270969608,-0.0005689292080902989,-0.0,-8.80928886807784e-07,-0.003373873884238106,-0.00448031751371111,-0.0,-0.0,-0.0,-0.0,-0.01792127005484444
0.0017164148914090335,0.0016394674856664113,0.0,1.4987215688421064e-07,0.0010405628850329684,0.001106640552824828,0.0,0.0007377603685498851,0.0,0.0,0.0029510414741995405
-0.0,-6.051788556929297e-05,-0.0,-6.791661416599625e-10,-2.5104882358616364e-05,-2.5083070992535903e-05,-0.0,-0.0,-0.0,-7.52492129776077e-05,-0.00010033228397014361
-3.3251858081278996e-05,-0.001415011277043677,-0.0,-0.0018158986970807883,-0.0,-0.0010000320082952912,-0.0,-0.0008571702928245351,-0.0,-0.0,-0.0034286811712981404
-0.00021983188788366132,-0.0026568084041055456,-0.0,-5.484926596594147e-07,-0.0009992198651136515,-0.0009686280639968132,-0.0,-0.001162353676796176,-0.0,-0.001162353676796176,-0.004649414707184704
7.245593599257762e-07,1.5979905331625193e-05,0.0,1.5929458946261077e-09,1.4787515215810618e-05,1.58719329983034e-05,0.0,1.3604513998545771e-05,0.0,6.802256999272886e-06,2.7209027997091543e-05
0.0,0.0005356794680473605,0.0,5.244784574377186e-08,0.00028751068981272836,0.00019002143292220553,0.0,0.00022802571950664667,0.0,0.0,0.0009121028780265867
-0.006844069064539256,-0.006783361484431278,-0.0,-0.0003596692197471484,-0.0,-0.0008479201855539095,-0.0,-0.0,-0.0,-0.0,-0.010175042226646917
-0.001730433192592606,-0.0007781644969850222,-0.0,-3.163703137097651e-08,-0.0019893944531617093,-0.0027235757394475776,-0.0,-0.0,-0.0,-0.0,-0.01634145443668547
0.0005400847795768069,0.0037211401379877015,0.0016745130620944655,2.401164168738093e-07,0.001965732725067416,0.003349026124188931,0.0,0.0016745130620944655,0.0,0.0,0.006698052248377862
-0.00011862321966325619,-0.0018347188474984268,-0.0,-6.908598032654762e-09,-0.002292760396295644,-0.002140505322081498,-0.0,-0.0,-0.0,-0.009632273949366743,-0.012843031932488992
-0.0020045549000137406,-0.0010597933879220984,-0.0011127830573182036,-2.3245831201797017e-07,-0.000689731968049057,-0.001483710743090938,-0.0,-0.0,-0.0,-0.0011127830573182036,-0.004451132229272814
-6.838916030063598e-05,-0.0013092710851670172,-0.0,-4.298273238762863e-05,-0.0,-0.0008359872807316427,-0.0,-0.0,-0.0,-0.0,-0.0022292994152843804
-6.128314502120583e-08,-1.674605950964443e-05,-0.0,-3.3633109012266567e-09,-0.0,-2.7910099182740705e-06,-0.0,-0.0,-0.0,-0.0,-1.674605950964443e-05
0.0019145057831629955,0.0003064581868881321,0.0,4.3542586046897397e-07,0.0008607744256237874,0.001608905481162694,0.0,0.0013790618409965946,0.0,0.0,0.0027581236819931893
-0.0013897279787842807,-0.0024306565245053205,-0.0,-2.196562136949418e-07,-0.0061518859828045116,-0.0031902366884132335,-0.0,-0.0,-0.0,-0.0,-0.015313136104383524
-0.00026106549858169415,-0.004521804315421889,-0.0,-1.9797431865817076e-07,-0.001341796280554538,-0.0029674340819956153,-0.0,-0.0,-0.0,-0.0,-0.011869736327982461
2.908745049024971e-05,0.0024988756315956176,0.0,2.951536172038214e-07,0.0006367205856037365,0.001220381122407162,0.0,0.0018305716836107431,0.0,0.0018305716836107431,0.0036611433672214862
8.599878044861804e-06,0.00041100467504721786,0.0,5.132215148584416e-08,0.00039614352576922607,0.0002942419832724401,0.0,0.0001961613221816267,0.0,0.0,0.0007846452887265068
-5.731172083271379e-05,-0.0017579740739795955,-0.0,-1.4960801631191995e-08,-0.00022070217993982964,-0.0023073409720982194,-0.0,-0.0,-0.0,-0.0,-0.006152909258928585
-7.450893109631332e-05,-0.0016153944946576241,-0.0,-7.112723274907693e-08,-0.0008135878864397656,-0.0010942994963809714,-0.0,-0.0008207246222857286,-0.0,-0.0,-0.0032828984891429143
-0.004818290768592704,-0.0020061635103722055,-0.0,-0.0,-0.0,-0.0,-0.0,-0.0,-0.0,-0.0,-0.00526617921472704
-0.0002703144646181269,-0.0009551507566946816,-0.0,-2.6951579691082643e-07,-0.000988373391710149,-0.001810806642900334,-0.0,-0.0008357569121078465,-0.0,-0.001671513824215693,-0.003343027648431386
3.981203724774904e-05,7.036490651009875e-05,0.0,1.7380839694974437e-08,0.00020025546458397983,7.388315183560373e-05,0.0,0.00014776630367120745,0.0,7.388315183560373e-05,0.0002955326073424149
2.0540579381165718e-05,0.001970628838317062,0.0,9.536332962320617e-05,0.0,0.00018150528773972933,0.0,0.0,0.0,0.0,0.0021780634528767526
0.0009414325800114283,0.0005881075275534101,0.0,0.0002882922621777157,0.0,0.0004481948496273973,0.0,0.0002987965664182649,0.0,0.0,0.0011951862656730595
-7.053768151751093e-05,-0.0009556949398976648,-0.0,-0.0007756949593091761,-0.0,-0.0007378527109504031,-0.0,-0.0004427116265702418,-0.0,-0.0,-0.0017708465062809672
-9.86828206101723e-05,-0.000312446243953216,-0.0,-1.7772601465395637e-08,-9.248496463720367e-05,-0.00021165713300056574,-0.0,-0.0,-0.0,-0.0001587428497504243,-0.0006349713990016971
7.220236354091406e-05,0.00011522151422645882,0.0,0.00012160809354324594,0.0,5.2601126059905116e-05,5.2601126059905116e-05,3.945084454492884e-05,0.0,0.0,0.00015780337817971536
0.000497166081680903,0.0002758600128878791,0.0,2.0892915001357966e-08,0.0003637421856892906,0.0002228100104094408,0.0,0.00016710750780708062,0.0,0.00033421501561416123,0.0006684300312283225
6.6129766719587835e-06,9.093083444717629e-05,0.0,7.661472656275643e-09,4.277969862919358e-05,4.51582184585639e-05,0.0,3.870704439305477e-05,0.0,0.0,0.00015482817757221908
0.00012529419808932258,0.0007532080873013745,0.0,0.0003211514140088276,0.0,0.00045980726259676926,0.0,0.00027588435755806156,0.0,0.0,0.0011035374302322462
-5.349425947198664e-05,-0.0005302220536546598,-0.0,-7.626989686165501e-09,-0.0005387517127786696,-0.0011929996207229847,-0.0,-0.0,-0.0,-0.0007953330804819898,-0.0015906661609639797
8.797053175559854e-05,0.0015855012679133911,0.0,5.608076933532979e-05,0.0,0.0012296643356260108,0.0,0.0,0.0,0.0,0.002270149542694174
-2.8520864235143544e-05,-0.0013696105891247909,-0.0,-1.4579468561995896e-09,-0.00021065724154790928,-0.0003126285040393543,-0.0,-0.0,-0.0,-0.0,-0.0018757710242361268
-0.00023599767025656514,-0.0004851546752749743,-0.0,-0.00044045045247912974,-0.0,-0.0002865444800842817,-0.0,-0.00019102965338952112,-0.0,-0.0,-0.0007641186135580845
3.4513732298668775e-06,0.000152609222816364,0.0,8.172058615232829e-11,3.9811101604268865e-05,1.90761528520455e-05,0.0,0.0,0.0,0.0,0.000152609222816364
-0.0,-0.0009077620879984293,-0.0,-1.2155536027438914e-07,-0.0006874616483329462,-0.0005718901154390105,-0.0,-0.0005718901154390105,-0.0,-0.0,-0.002287560461756042
-8.915253176256423e-05,-0.00014810457945255194,-0.0,-0.00014691951437064958,-0.0,-0.00015550980842517957,-0.0,-0.00011663235631888468,-0.0,-0.0,-0.0004665294252755387
0.0003150092253138015,0.0002702347950727208,0.00018505208793023276,1.781711996731119e-08,0.0002279519893582328,0.00018505208793023276,0.000740208351720931,0.0,0.0,0.0,0.000740208351720931
2.0510396468657677e-05,0.0005973174933509698,0.0,8.51318507480328e-08,0.00028381856050527444,0.00038398981715419484,0.0,0.0005759847257312922,0.0,0.00019199490857709742,0.0007679796343083897
-0.0016591233292937207,-0.0030841314680351045,-0.0,-2.593015168775852e-08,-0.0033368961557414603,-0.0016191690207184295,-0.0,-0.0,-0.0,-0.004857507062155291,-0.009715014124310582
0.0001428086413250779,0.0006604217959866825,0.0,2.0024823960599006e-07,0.0014101832598296664,0.0008668036072325209,0.0,0.0018912078703255,0.0,0.0018912078703255,0.0018912078703255
-0.0,-0.0009990192264674534,-0.0,-5.70123447111652e-07,-0.0013682219840749918,-0.004589244571584871,-0.0,-0.0,-0.0,-0.0,-0.015734552816862413
4.026574331455679e-05,0.0029724081758375847,0.0,1.1396970955442684e-05,0.0,0.0011822077972081298,0.0,0.0,0.0,0.0,0.005674597426599025
-0.0012159346923196902,-0.0005903203167534119,-0.0,-2.4154176109068077e-07,-0.000237462763939242,-0.00044274023756505894,-0.0,-0.0,-0.0,-0.0,-0.0017709609502602358
-0.0002005075950438989,-0.00021054527385716137,-0.0,-8.728079287747945e-08,-0.00040294351676926297,-0.0006377092429327485,-0.0,-0.0005101673943461988,-0.0,-0.0007652510915192983,-0.0010203347886923975
-0.0005761164530782615,-0.0004141811484172946,-0.0,-1.102531480210891e-07,-0.0004065126744937285,-0.0007828023705086868,-0.0,-0.0005218682470057911,-0.0,-0.0,-0.0010437364940115823
-6.958349464808928e-06,-0.0018280910134746697,-0.0,-0.0010801699262024736,-0.0,-0.0003621689743676231,-0.0,-0.0010865069231028696,-0.0,-0.0,-0.0021730138462057393
2.726805074463768e-05,0.0029299427167738387,0.0,0.00016935477440752905,0.0,0.0020975726267812712,0.0,0.0010487863133906356,0.0,0.0,0.0041951452535625424
-0.0005377974304671204,-0.0027617801445148546,-0.0,-9.149468123279067e-08,-0.0008915746770879476,-0.0018124182198378735,-0.0,-0.0,-0.0,-0.0,-0.0062140053251584235
-0.0,-0.0012595164242933442,-0.0,-7.082983844317747e-06,-0.0,-0.0016531153068850143,-0.0,-0.0,-0.0,-0.0,-0.004408307485026705
0.00010471959048932543,0.0003344796034407592,0.0,6.193677661790755e-08,7.582206302884975e-05,0.0002724855390099289,0.0,0.00018165702600661925,0.0,0.0,0.000726628104026477
-0.000575012838655361,-0.000638091222012873,-0.0,-1.1899641871321116e-06,-0.0003923844868930029,-0.002093736822229742,-0.0,-0.0,-0.0,-0.0,-0.010049936746702763
-1.407141184647671e-05,-0.0010396331881170012,-0.0,-1.917056038959674e-09,-0.0006935222623258893,-0.0025191111865911957,-0.0,-0.0,-0.0,-0.0,-0.005038222373182391
-0.00018162254914508768,-0.0007834461855197895,-0.0,-4.940047969701846e-08,-0.0005563603346444882,-0.00022850513744327198,-0.0,-0.00045701027488654396,-0.0,-0.00045701027488654396,-0.0018280410995461759
3.7126909742725315e-05,0.004834095930247887,0.0,4.294378345873942e-07,0.001478878679139232,0.0029080108330397443,0.0,0.001586187727112588,0.0,0.0,0.006344750908450352
-0.001199793386336374,-0.00046668539686446457,-0.0,-2.44222351798392e-07,-8.522081160133701e-05,-0.000490019666707688,-0.0,-0.0,-0.0,-0.0,-0.001960078666830752
5.300169682300054e-05,9.015434606808917e-05,0.0,1.78895231369265e-08,6.287481687413844e-05,7.888505280957803e-05,0.0,0.00015777010561915606,0.0,0.0,0.0003155402112383121
-0.00029105570845682144,-0.0003887033023324834,-0.0007202443543219546,-9.24884655211478e-08,-0.0002630457641871486,-0.0005401832657414659,-0.0,-0.0,-0.0,-0.0007202443543219546,-0.0014404887086439091
-0.0016453839095918808,-0.000911183922510789,-0.0,-2.604788622776373e-07,-0.0012385183662186531,-0.0011039343676573022,-0.0,-0.0011039343676573022,-0.0,-0.0011039343676573022,-0.004415737470629209
-0.00032410456702751286,-0.00025054936904089233,-0.0,-0.00010706669098164086,-0.0,-0.00011958038067860767,-0.0,-0.0,-0.0,-0.0,-0.0007174822840716463
-0.002789580454105984,-0.0005807406386465859,-0.0,-0.0005951989698844568,-0.0,-0.0003811110441118221,-0.0,-0.0007622220882236442,-0.0,-0.0,-0.003048888352894577
4.334094564836267e-06,0.0020125010506752044,0.0,1.6602874023568074e-07,0.002526498194019936,0.0016980477615072035,0.0,0.002264063682009605,0.0,0.002264063682009605,0.00452812736401921
0.00027281567814532785,0.004098960892784827,0.0,0.0003050116108279437,0.0,0.00153711033479431,0.0,0.0,0.0,0.0,0.00614844133917724
-0.0006708324940911634,-0.000617787026781,-0.0,-0.0050497076576876175,-0.0,-0.002702818242166875,-0.0,-0.003243381890600251,-0.0,-0.0,-0.012973527562401005
-0.0,-0.0009791622303567183,-0.0,-2.6590569138181155e-07,-0.0010191801649886891,-0.0020562406837491094,-0.0,-0.0,-0.00616872205124733,-0.0,-0.01233744410249466
0.00032778432809860755,0.0019054163947693587,0.0,6.954770216443569e-07,0.00020835532066876692,0.0015794899061903898,0.0,0.0007897449530951949,0.0,0.0,0.0031589798123807795
-0.00020538950252438728,-0.0004790083513764309,-0.0,-0.0005789766484063044,-0.0,-0.0007279666392628655,-0.0,-0.0007941454246503988,-0.0,-0.0007941454246503988,-0.0015882908493007977
0.00020268397895238606,0.0007380185398586888,0.0,0.0009484088300409403,0.0,0.0008475681668689629,0.0,0.0007264870001733968,0.0,0.0,0.0014529740003467937
-7.3265361381087265e-06,-0.00013661490844159586,-0.0,-1.2108195638839216e-08,-6.636752252092728e-05,-8.766123291669068e-05,-0.0,-4.781521795455856e-05,-0.0,-0.0,-0.00019126087181823423
-0.00012244776985465287,-0.003191977258393868,-0.0,-4.577331699470524e-05,-0.0,-0.0008378940303283904,-0.0,-0.0,-0.0,-0.0,-0.006703152242627123
-0.0,-0.0009366472150808846,-0.0,-0.0,-0.002405248962639772,-0.0003073373674484152,-0.0,-0.0,-0.0,-0.001844024204690492,-0.003688048409380984
0.0003691246979733835,0.0003360924471445077,0.0,1.9402759666328867e-07,0.00036824042034963464,0.0005293456042525999,0.0,0.0010586912085051997,0.0,0.0007057941390034664,0.0014115882780069329
0.0002505645673045513,0.00013799285458090442,0.00023286294210527622,3.730585918524366e-08,5.556312288146764e-05,0.0001423051312865577,0.0,7.762098070175874e-05,0.0,0.0,0.00031048392280703496
0.0020063166634080153,0.001009391302996727,0.000548203897317188,1.1177901072236593e-09,0.0004131073890565869,9.136731621953119e-05,0.0007309385297562506,0.0,0.0,0.000548203897317188,0.002192815589268752
-9.770719511137038e-06,-0.0036355229634482526,-0.0,-8.701583148508632e-08,-0.0024206655453472784,-0.001325451080423842,-0.0,-0.0,-0.0,-0.0,-0.0063621651860344425
4.3357736807626676e-05,0.0013121306921676833,0.0,6.789544859901019e-07,0.0005445601686861924,0.0010437403233152026,0.0,0.0018787325819673646,0.0,0.0,0.002504976775956486
0.0007028442587188965,0.0004023788284940695,0.0,0.0006462885719444007,0.0,9.602222043608477e-05,0.0,0.0003840888817443391,0.0,0.0,0.0007681777634886782
0.0009675817643667829,0.0012127071045355377,0.0,4.944730544796429e-07,0.00015853868570163198,0.0005787920271646884,0.0,0.0008681880407470327,0.0,0.0,0.0017363760814940654
-0.006764753100685953,-0.0,-0.0,-1.7819282417804085e-05,-0.0,-0.0,-0.0,-0.0,-0.0,-0.0,-0.007393576660795343
-0.00038018308729845273,-0.0004215602394444771,-0.0,-5.166472306668011e-08,-0.000720715740199688,-0.00046817507361381837,-0.0,-0.00025536822197117366,-0.0,-0.0,-0.0010214728878846946
-0.005728331879248233,-0.0007557448283697075,-0.0,-3.216760666246248e-07,-0.0006901141402581884,-0.0017358514026616734,-0.0,-0.0,-0.0,-0.0,-0.005951490523411451
0.0003798853541172307,0.0011339848223368865,0.0,1.9175088957260544e-07,0.0005176887232407525,0.0013530500721065123,0.0,0.00108244005768521,0.0,0.0,0.00216488011537042
-0.00029935831273552314,-0.00014121362246800979,-0.0,-4.42585084903269e-08,-0.00020621409939696684,-0.00016217501955310504,-0.0,-0.00013900715961694717,-0.0,-0.0005560286384677887,-0.0005560286384677887
0.0010165835915208264,0.0004389449118403838,0.0006284893055896405,0.000492032864405267,0.0,0.000733237523187914,0.0,0.0006284893055896405,0.0,0.00031424465279482024,0.001256978611179281
-8.881317150727315e-05,-0.001036730650170088,-0.0010885671826785927,-1.8185400850039093e-08,-0.0009193186502760429,-0.0016328507740178892,-0.0,-0.0,-0.0,-0.0021771343653571853,-0.004354268730714371
-0.0006408352676424844,-0.0055133778013566545,-0.0,-0.0024648886102179982,-0.0,-0.001206051394046768,-0.0,-0.0036181541821403056,-0.0,-0.0,-0.014472616728561222
-0.0,-0.0013091669299171512,-0.0,-0.0007034579365299979,-0.0,-0.0008018647445742552,-0.0,-0.0006873126382065045,-0.0,-0.0,-0.002749250552826018
0.004103882325669586,0.0021176257289799057,0.0,1.4874027875257884e-07,0.0020001562357681267,0.0007667265570444483,0.0,0.0011500898355666731,0.0,0.0,0.0046003593422666925
-0.0002027120809722247,-0.0009493685647935264,-0.0,-0.005863767206749715,-0.0,-0.002848105694380579,-0.0,-0.00427215854157087,-0.0,-0.002136079270785435,-0.00854431708314174
0.0,0.000515840824739564,0.0017104195767680284,6.2146756677652e-07,0.00015691240465132782,0.0008552097883840142,0.0,0.0008552097883840142,0.0,0.0012828146825760215,0.0017104195767680284
0.00015735566325563062,0.0008992164098704109,0.0,8.301474054289034e-08,0.0004161740715547163,0.000569762121771338,0.0,0.0004883675329468611,0.0,0.0004883675329468611,0.0019534701317874444
-2.0959859799267547e-05,-0.0004839401191349167,-0.0,-1.1298204128306976e-07,-0.0006701224034034919,-0.0005928266459402733,-0.0,-0.0010162742501833256,-0.0,-0.0020325485003666512,-0.0020325485003666512
-0.004439001587311393,-0.0,-0.0,-1.2287657883121745e-09,-0.00016706492334086652,-0.00020215136978324547,-0.0,-0.0,-0.0,-0.0,-0.004851632874797899
0.00023463760710065037,0.002692411434424988,0.0,7.439448579979777e-09,0.002546084726032326,0.0033655142930312356,0.0,0.0,0.0,0.0,0.0040386171516374825
-0.0017591933823108718,-0.0009024747928806641,-0.0,-6.539305193622313e-07,-0.001059426930772953,-0.001015284141990747,-0.0,-0.002030568283981494,-0.0,-0.0,-0.008122273135925976
-0.00080905747374425,-0.001131322830282168,-0.001187888971796277,-2.1834762249516622e-07,-0.0019780933747738,-0.0027717409341913132,-0.003167703924790072,-0.001187888971796277,-0.0,-0.0,-0.004751555887185108
0.00044118409429979167,0.0009022234974369257,0.0,1.7549248039760737e-07,0.0002089569650927877,0.0007054619900171707,0.0,0.0003023408528645017,0.0,0.0,0.0012093634114580067
-0.0003465187225428644,-0.0007559937066113828,-0.0,-2.1571336382576428e-07,-0.0004857015878850816,-0.0006843046482258207,-0.0,-0.0008211655778709848,-0.0,-0.0008211655778709848,-0.0016423311557419696
0.0001579317637297912,0.0014285767089865743,0.0,3.4247354969082873e-08,0.001194173211948869,0.0006617671519570159,0.0,0.0004411781013046773,0.0,0.0004411781013046773,0.0017647124052187092
-0.00012999164730366361,-0.003537603113658439,-0.0,-1.0857862722001148e-08,-0.000630996818900936,-0.00031478671774079324,-0.0,-0.0,-0.0,-0.0,-0.00377744061288952
-0.0,-0.0008616810020256324,-0.0,-0.0015972727289187319,-0.0,-0.006220259733372542,-0.0,-0.0,-0.0,-0.0,-0.013571475781903729
0.0,0.0017195879547529593,0.0,0.0023586867448364426,0.0,0.0015859713231336412,0.0,0.0007319867645232192,0.0,0.0,0.0029279470580928766
-0.0,-0.0024749784259947313,-0.0,-0.00031968421627820816,-0.0,-0.0013535038267158685,-0.0,-0.0008121022960295212,-0.0,-0.0,-0.0032484091841180848
-0.00036378042973987283,-0.002438572053170164,-0.0,-7.784860789889243e-09,-0.002194714847853148,-0.0004572322599694056,-0.0,-0.0,-0.0,-0.0027433935598164347,-0.0054867871196328695
0.0006600439662845386,0.0003116013088380516,0.0002044883589249714,8.991632728942374e-08,0.00014758725035454454,0.0002726511452332952,0.0,0.0002044883589249714,0.0,0.0004089767178499428,0.0008179534356998856
-0.0005282533169825318,-0.0020672623671826183,-0.0,-6.626246494033013e-07,-0.001900982568083147,-0.0010336311835913087,-0.0,-0.0031008935507739273,-0.0,-0.004651340326160891,-0.006201787101547855
-0.003294749120735476,-0.004401055981520537,-0.0,-3.097632679033941e-06,-0.001854625597563838,-0.003554699061997356,-0.0,-0.005332048592996037,-0.0,-0.010664097185992073,-0.021328194371984147
0.00017479338201064563,0.003246357532687195,0.0,1.7448475525426178e-08,0.00030364665192944237,0.0004190994355723223,0.0,0.0,0.0,0.0,0.003352795484578578
0.0015750306719101372,0.001529194535216319,0.0,1.5976978608981765e-07,0.0004276464118814352,0.0006175593315296673,0.0,0.0004631694986472505,0.0,0.0,0.001852677994589002
0.0009455837255836682,0.0007736613475569733,0.0,1.9703559082829895e-07,0.0010226175900847861,0.0011335038347927747,0.0,0.0011335038347927747,0.0,0.000850127876094581,0.0011335038347927747
-9.933279217965634e-05,-0.00014147200050512772,-0.0,-3.211912373520523e-08,-0.00012997988450422874,-0.0001285490773820632,-0.0,-0.0001713987698427509,-0.0,-8.569938492137545e-05,-0.0003427975396855018
0.0001615696651307039,0.0011838530244747546,0.0,1.2677183561636502e-07,0.0005431569148160804,0.0010054045906384866,0.0,0.000548402503984629,0.0,0.001096805007969258,0.002193610015938516
-0.00011065436942232456,-0.0022319658626799295,-0.0,-0.0004812763804507941,-0.0,-0.000366181899345926,-0.0,-0.000732363798691852,-0.0,-0.0,-0.002929455194767408
-4.471224557352083e-06,-9.056095970493062e-05,-0.0,-2.9907161816865926e-10,-1.9706852318399026e-05,-3.169633589672572e-05,-0.0,-0.0,-0.0,-0.0,-0.00012678534358690288
-0.006639266183756353,-0.0,-0.0,-0.0,-0.0,-0.0003023510415581605,-0.0,-0.0,-0.0,-0.0,-0.007256424997395864
0.0,0.00019731040716499214,0.0,0.0,0.00015012748371249395,5.754886875645602e-05,0.0,0.0,0.0,0.0,0.0006905864250774725
-4.912148595767974e-05,-0.0005374674086959152,-0.0,-1.6497874308863817e-08,-0.0001131246743621107,-0.00038477780395275755,-0.0,-0.00019238890197637877,-0.0,-0.0,-0.0007695556079055151
-0.0,-0.0001315113424731181,-0.0,-2.3829428692902083e-08,-0.00015425708683651217,-0.0001821980057179657,-0.0,-0.00023014484932795668,-0.0,-5.753621233198917e-05,-0.00023014484932795668
-4.655708487113352e-06,-0.0010031346934950656,-0.0,-1.4711998927684884e-05,-0.0,-0.00047876883098628127,-0.0,-0.0,-0.0,-0.0,-0.001436306492958844
-0.00024585922614402686,-0.0009120424512015328,-0.0,-7.526412638084234e-07,-0.000989288481416341,-0.0033517560081656353,-0.0,-0.0,-0.0,-0.0,-0.011491734885139321
0.00036097081731954197,0.00023382515824254134,0.0,9.887722817408326e-08,9.622535572976705e-05,0.0002455164161546684,0.0,0.00014730984969280105,0.0,0.0005892393987712042,0.0005892393987712042
-1.6155836926896395e-05,-0.0002652499282283061,-0.0,-2.539840923392617e-06,-0.0,-7.527362828100575e-05,-0.0,-0.0,-0.0,-0.0,-0.00045164176968603466
5.61194677681571e-06,0.0015712260217995051,0.0,2.144412844959999e-07,0.00012699717097082244,0.0008789850490804607,0.0,0.00081137081453581,0.0,0.0,0.00162274162907162
-1.1877453918050457e-05,-0.0029329330398556513,-0.0,-3.79085059050211e-10,-0.0019257893377347844,-0.0006599099339675216,-0.0,-0.0,-0.0,-0.0,-0.0052792794717401725
-0.0004640737924615849,-0.0012154758407474941,-0.0,-0.0004903120332717398,-0.0,-0.00045580344028031027,-0.0,-0.00045580344028031027,-0.0,-0.0,-0.001823213761121241
0.000250391142835026,0.00017492243344580008,0.0,4.624071721110458e-08,0.00013745861139562572,0.00025509521544179184,0.0,0.0003061142585301502,0.0,0.00010203808617671674,0.00040815234470686695
-0.00013421823597467873,-0.0003115565619630925,-0.0,-2.9302580798275553e-08,-0.00038043718693059694,-0.0002256099241801704,-0.0,-0.00016920744313512782,-0.0,-0.0006768297725405113,-0.0006768297725405113
-0.0,-0.0005822485739138428,-0.0004956981102239472,-1.8229721100669178e-07,-8.620836699546906e-05,-0.0003304654068159648,-0.0,-0.0002478490551119736,-0.0009913962204478944,-0.0002478490551119736,-0.0009913962204478944
0.00021503808751097213,0.0007615628954767269,0.0,2.483032951418536e-08,0.0003052712348782638,0.0001950344000611129,0.0,0.0,0.0,0.0002925516000916695,0.001170206400366678
3.220483327538241e-05,3.068644150494288e-05,0.0,3.0995201271927514e-05,0.0,4.4442432524400036e-05,0.0,3.333182439330003e-05,0.0,1.6665912196650014e-05,6.666364878660005e-05
0.011185011050715718,0.12950833794952263,0.0,7.474958988603124e-06,0.21191061110024292,0.06262409762690734,0.0,0.10735559593184113,0.0,0.10735559593184113,0.21471119186368226
0.0013274474124459023,0.0008981399461167805,0.0,7.448123092911784e-07,9.556629560436579e-05,0.0001813551814274268,0.0,0.0007254207257097072,0.0,0.0003627103628548536,0.0014508414514194145
0.0016335786932480671,0.001587048385812467,0.0,1.6634808284681836e-07,0.0001493550535256992,0.0003719644654247969,0.000595143144679675,0.00044635735850975637,0.0,0.0,0.0017854294340390255
-0.00016128913973281137,-0.000274195431689918,-0.0,-6.567556130418452e-08,-0.0006705866535894734,-0.0007197630081860349,-0.0,-0.0006169397213023156,-0.0,-0.0006169397213023156,-0.0012338794426046311
-0.0007719279882363883,-0.001046504507769862,-0.0,-1.8986155805812935e-07,-0.0003980977602422718,-0.0008324467675442082,-0.0,-0.000499468060526525,-0.0,-0.0,-0.0019978722421061
9.627286158015775e-05,6.710686307739443e-05,5.562805755099802e-05,4.274577994756355e-05,0.0,4.635671462583168e-05,0.0,2.781402877549901e-05,0.0,0.0,0.00011125611510199604
-0.00023498422163242773,-0.0015983756864757445,-0.0,-6.155225992017646e-05,-0.0,-9.121165602171355e-05,-0.0,-0.0,-0.0,-0.0,-0.0021890797445211284
0.0005875680447961154,0.002063427265774622,0.0,3.810448838376509e-05,0.0,0.0002927835985220746,0.0,0.0,0.0,0.0,0.0035134031822648968
-0.0011237639616760422,-0.002381130015453658,-0.0,-6.026775543188508e-07,-0.003952468770869118,-0.003977569457632815,-0.0,-0.006818690498799111,-0.0,-0.0,-0.013637380997598222
0.00017463794930551625,0.00135767610357404,0.00101825707768053,0.0006883763383047009,0.0,0.0017819498859409275,0.0,0.00101825707768053,0.0,0.0,0.00203651415536106
